encog,BasicNetwork,java,3.4.0,1,63655169543326
[BASIC]
[BASIC:PARAMS]
[BASIC:NETWORK]
beginTraining=0
connectionLimit=0
contextTargetOffset=0,0,0
contextTargetSize=0,0,0
endTraining=2
hasContext=f
inputCount=1875
layerCounts=2,51,1876
layerFeedCounts=2,50,1875
layerContextCount=0,0,0
layerIndex=0,2,53
output=0,0,0,0,0,0,0,0,0,0,0,0,0,0,0,0,0,0,0,0,0,0,0,0,0,0,0,0,0,0,0,0,0,0,0,0,0,0,0,0,0,0,0,0,0,0,0,0,0,0,0,0,1,0,0,0,0,0,0,0,0,0,0,0,0,0,0,0,0,0,0,0,0,0,0,0,0,0,0,0,0,0,0,0,0,0,0,0,0,0,0,0,0,0,0,0,0,0,0,0,0,0,0,0,0,0,0,0,0,0,0,0,0,0,0,0,0,0,0,0,0,0,0,0,0,0,0,0,0,0,0,0,0,0,0,0,0,0,0,0,0,0,0,0,0,0,0,0,0,0,0,0,0,0,0,0,0,0,0,0,0,0,0,0,0,0,0,0,0,0,0,0,0,0,0,0,0,0,0,0,0,0,0,0,0,0,0,0,0,0,0,0,0,0,0,0,0,0,0,0,0,0,0,0,0,0,0,0,0,0,0,0,0,0,0,0,0,0,0,0,0,0,0,0,0,0,0,0,0,0,0,0,0,0,0,0,0,0,0,0,0,0,0,0,0,0,0,0,0,0,0,0,0,0,0,0,0,0,0,0,0,0,0,0,0,0,0,0,0,0,0,0,0,0,0,0,0,0,0,0,0,0,0,0,0,0,0,0,0,0,0,0,0,0,0,0,0,0,0,0,0,0,0,0,0,0,0,0,0,0,0,0,0,0,0,0,0,0,0,0,0,0,0,0,0,0,0,0,0,0,0,0,0,0,0,0,0,0,0,0,0,0,0,0,0,0,0,0,0,0,0,0,0,0,0,0,0,0,0,0,0,0,0,0,0,0,0,0,0,0,0,0,0,0,0,0,0,0,0,0,0,0,0,0,0,0,0,0,0,0,0,0,0,0,0,0,0,0,0,0,0,0,0,0,0,0,0,0,0,0,0,0,0,0,0,0,0,0,0,0,0,0,0,0,0,0,0,0,0,0,0,0,0,0,0,0,0,0,0,0,0,0,0,0,0,0,0,0,0,0,0,0,0,0,0,0,0,0,0,0,0,0,0,0,0,0,0,0,0,0,0,0,0,0,0,0,0,0,0,0,0,0,0,0,0,0,0,0,0,0,0,0,0,0,0,0,0,0,0,0,0,0,0,0,0,0,0,0,0,0,0,0,0,0,0,0,0,0,0,0,0,0,0,0,0,0,0,0,0,0,0,0,0,0,0,0,0,0,0,0,0,0,0,0,0,0,0,0,0,0,0,0,0,0,0,0,0,0,0,0,0,0,0,0,0,0,0,0,0,0,0,0,0,0,0,0,0,0,0,0,0,0,0,0,0,0,0,0,0,0,0,0,0,0,0,0,0,0,0,0,0,0,0,0,0,0,0,0,0,0,0,0,0,0,0,0,0,0,0,0,0,0,0,0,0,0,0,0,0,0,0,0,0,0,0,0,0,0,0,0,0,0,0,0,0,0,0,0,0,0,0,0,0,0,0,0,0,0,0,0,0,0,0,0,0,0,0,0,0,0,0,0,0,0,0,0,0,0,0,0,0,0,0,0,0,0,0,0,0,0,0,0,0,0,0,0,0,0,0,0,0,0,0,0,0,0,0,0,0,0,0,0,0,0,0,0,0,0,0,0,0,0,0,0,0,0,0,0,0,0,0,0,0,0,0,0,0,0,0,0,0,0,0,0,0,0,0,0,0,0,0,0,0,0,0,0,0,0,0,0,0,0,0,0,0,0,0,0,0,0,0,0,0,0,0,0,0,0,0,0,0,0,0,0,0,0,0,0,0,0,0,0,0,0,0,0,0,0,0,0,0,0,0,0,0,0,0,0,0,0,0,0,0,0,0,0,0,0,0,0,0,0,0,0,0,0,0,0,0,0,0,0,0,0,0,0,0,0,0,0,0,0,0,0,0,0,0,0,0,0,0,0,0,0,0,0,0,0,0,0,0,0,0,0,0,0,0,0,0,0,0,0,0,0,0,0,0,0,0,0,0,0,0,0,0,0,0,0,0,0,0,0,0,0,0,0,0,0,0,0,0,0,0,0,0,0,0,0,0,0,0,0,0,0,0,0,0,0,0,0,0,0,0,0,0,0,0,0,0,0,0,0,0,0,0,0,0,0,0,0,0,0,0,0,0,0,0,0,0,0,0,0,0,0,0,0,0,0,0,0,0,0,0,0,0,0,0,0,0,0,0,0,0,0,0,0,0,0,0,0,0,0,0,0,0,0,0,0,0,0,0,0,0,0,0,0,0,0,0,0,0,0,0,0,0,0,0,0,0,0,0,0,0,0,0,0,0,0,0,0,0,0,0,0,0,0,0,0,0,0,0,0,0,0,0,0,0,0,0,0,0,0,0,0,0,0,0,0,0,0,0,0,0,0,0,0,0,0,0,0,0,0,0,0,0,0,0,0,0,0,0,0,0,0,0,0,0,0,0,0,0,0,0,0,0,0,0,0,0,0,0,0,0,0,0,0,0,0,0,0,0,0,0,0,0,0,0,0,0,0,0,0,0,0,0,0,0,0,0,0,0,0,0,0,0,0,0,0,0,0,0,0,0,0,0,0,0,0,0,0,0,0,0,0,0,0,0,0,0,0,0,0,0,0,0,0,0,0,0,0,0,0,0,0,0,0,0,0,0,0,0,0,0,0,0,0,0,0,0,0,0,0,0,0,0,0,0,0,0,0,0,0,0,0,0,0,0,0,0,0,0,0,0,0,0,0,0,0,0,0,0,0,0,0,0,0,0,0,0,0,0,0,0,0,0,0,0,0,0,0,0,0,0,0,0,0,0,0,0,0,0,0,0,0,0,0,0,0,0,0,0,0,0,0,0,0,0,0,0,0,0,0,0,0,0,0,0,0,0,0,0,0,0,0,0,0,0,0,0,0,0,0,0,0,0,0,0,0,0,0,0,0,0,0,0,0,0,0,0,0,0,0,0,0,0,0,0,0,0,0,0,0,0,0,0,0,0,0,0,0,0,0,0,0,0,0,0,0,0,0,0,0,0,0,0,0,0,0,0,0,0,0,0,0,0,0,0,0,0,0,0,0,0,0,0,0,0,0,0,0,0,0,0,0,0,0,0,0,0,0,0,0,0,0,0,0,0,0,0,0,0,0,0,0,0,0,0,0,0,0,0,0,0,0,0,0,0,0,0,0,0,0,0,0,0,0,0,0,0,0,0,0,0,0,0,0,0,0,0,0,0,0,0,0,0,0,0,0,0,0,0,0,0,0,0,0,0,0,0,0,0,0,0,0,0,0,0,0,0,0,0,0,0,0,0,0,0,0,0,0,0,0,0,0,0,0,0,0,0,0,0,0,0,0,0,0,0,0,0,0,0,0,0,0,0,0,0,0,0,0,0,0,0,0,0,0,0,0,0,0,0,0,0,0,0,0,0,0,0,0,0,0,0,0,0,0,0,0,0,0,0,0,0,0,0,0,0,0,0,0,0,0,0,0,0,0,0,0,0,0,0,0,0,0,0,0,0,0,0,0,0,0,0,0,0,0,0,0,0,0,0,0,0,0,0,0,0,0,0,0,0,0,0,0,0,0,0,0,0,0,0,0,0,0,0,0,0,0,0,0,0,0,0,0,0,0,0,0,0,0,0,0,0,0,0,0,0,0,0,0,0,0,0,0,0,0,0,0,0,0,0,0,0,0,0,0,0,0,0,0,0,0,0,0,0,0,0,0,0,0,0,0,0,0,0,0,0,0,0,0,0,0,0,0,0,0,0,0,0,0,0,0,0,0,0,0,0,0,0,0,0,0,0,0,0,0,0,0,0,0,0,0,0,0,0,0,0,0,0,0,0,0,0,0,0,0,0,0,0,0,0,0,0,0,0,0,0,0,0,0,0,0,0,0,0,0,0,0,0,0,0,0,0,0,0,0,0,0,0,0,0,0,0,0,0,0,0,0,0,0,0,0,0,0,0,0,0,0,0,0,0,0,0,0,0,0,0,0,0,0,0,0,0,0,0,0,0,0,0,0,0,0,0,0,0,0,0,0,0,0,0,0,0,0,0,0,0,0,0,0,0,0,0,0,0,0,0,0,0,0,0,0,0,0,0,0,0,0,0,0,0,0,0,0,0,0,0,0,0,0,0,0,0,0,0,0,0,0,0,0,0,0,0,0,0,0,0,0,0,0,0,0,0,0,0,0,0,0,0,0,0,0,0,0,0,0,0,0,0,0,0,0,0,0,0,0,0,0,0,0,0,0,0,0,0,0,0,0,0,0,0,0,0,0,0,0,0,0,0,0,0,0,0,0,0,0,0,0,0,0,0,0,0,0,0,0,0,0,0,0,0,0,0,0,0,0,0,0,0,0,0,0,0,0,0,0,0,0,1
outputCount=2
weightIndex=0,102,93902
weights=##0
##double#93902
   0.1806017941,-0.0807280475,0.5741977213,-0.2026729531,0.1438782641,0.3149815458,-1.0867391503,0.6070289932,0.5767232459,-0.3097863512,-0.8244274029,0.307319202,-0.0348038119,-0.2940803734,0.0262016374,-0.1146874656,0.217727342,1.0080111415,0.3881863439,0.8472193627,0.034200546,0.742980856,-0.5948140613,-0.3029426414,-0.1208658039,-0.9265164477,0.205229769,0.0365534277,-0.0765736152,-0.3662256083,1.9953135177,-0.9889335716,0.2573594396,-0.1580096371,-0.3180505597,2.3414133447,-0.1635980931,0.9527285242,0.7770225012,0.1704307862,0.0844949444,-0.0971018795,0.1426784776,0.4940160669,0.5259644593,-0.1520289121,-0.0189472446,1.0324202205,-0.7185647749,0.7687603692,0.5886137762,-0.8233477049,-0.0451650452,-0.5079514654,-0.2309426233,0.4529898182,-0.4071376338,1.3431524813,-0.2707680475,-0.33256551,0.2962165899,0.4656666243,-0.0302252824,0.450410922,0.0158036091,-0.2828606834,-0.2913667437,-0.4495483179,-0.5184572201,-0.1026336278,-0.6488219073,-0.2759292978,-0.2567660888,0.4474731868,-0.1911530429,-0.3184702656,1.3018848582,-0.461239824,0.6518249638,0.3741826087,0.3051421951,-2.1177064611,0.7150581972,-0.3850541733,0.2110391278,0.3903286161,-2.190054733,-0.0923998231,-1.3552940329,-0.4765509037,-0.1227304371,0.0568462605,-0.0387174259,0.1602742757,-0.1958851612,-0.0100012232,0.0765527658,-0.0719776014,-0.7920017428,-0.3580355632,-0.6048651149,-0.6465792456,0.3641522555,0.9461259867,-0.973218553,-0.6163519335,0.7120073718,-0.3491378592,-0.3434669301,-0.6562895075,0.267981381,0.140903419,0.1926855429,-0.521833062,-0.8223673236,0.4248524044,0.0115658301,0.331440687,-0.1956964973,-0.815134187,-0.267517198,0.5134285032,-0.0110676334,0.4295818531,0.8303788624,0.6638497068,-0.182226011,0.4735297401,-0.0088789896,-0.1660783716,-0.7525045772,-0.7468759124,0.5900525168,-0.0213022438,0.7492171368,0.9228665993,-0.8429242762,0.9170607311,0.8964867224,-0.5325045626,0.3961019785,0.8577342069,-0.403002323,0.3778482883,-0.8223948677,-0.1884606563,-0.9527050382,-0.639488252,-0.7920947991,-0.9427821607,-0.4129004286,-0.3560927003,-0.1670031434,0.0511255033,0.8141332983,0.9086451631,-0.301519122,-0.3691955989,-0.5742656356,-0.705220765,-0.801401063,0.8389477345,-0.3977786461,0.6660341058,-0.5026545961,0.8722196223,0.5877254596,-0.2290604827,0.6909824333,-0.8750752012,0.6326303926,-0.0791479304,-0.4049359868,0.5528934692,-0.7268785116,-0.7471699158,0.5632023957,0.0116157084,0.5082483058,0.6042092254,-0.370730159,-0.0646167771,0.9139148707,-0.7616144403,0.5647957057,-0.7031414547,0.6711760769,0.3595271659,0.8346559189,0.3769077387,-0.3570450654,0.3532304489,-0.9124170176,0.4802499234,-0.4953626122,-0.0329380444,-0.9802827534,0.6846801316,-0.8560492272,0.6258727272,0.1996761016,-0.7507624926,0.764748149,0.6684858419,0.866411929,0.1621390805,-0.269552781,-0.3208092057,0.8936181407,-0.1890690224,0.7506732403,0.7071055078,0.8667819734,-0.0817728631,-0.7260881055,0.1306070542,0.0752283305,-0.5687180463,0.6769644488,0.8234797135,0.312109736,0.8064363526,0.137953141,-0.2180113071,0.3153074568,-0.008461465,-0.5898328721,-0.0114505749,-0.4717589844,-0.571375644,0.7718534409,0.2427646505,0.1100688866,0.7997140528,-0.9113200271,-0.1254462453,-0.3268817983,0.74257039,0.1352725825,0.8057684927,0.4352910272,0.7130990923,0.0360804979,-0.0105005697,-1.0185149108,-0.4912024325,-0.9896595853,-0.0974815601,0.9991007022,0.1071394014,0.8559773455,-0.3668713797,-0.618718315,0.0186091368,0.093431128,-0.2653083251,0.2470196152,0.7215763845,0.5505919643,-0.7829971205,0.4256320916,0.8182732399,0.061662628,0.0385410607,-0.4410687982,-0.5800187008,1.0198404774,-0.0656113558,-0.2849878596,-0.121177132,-0.5029340849,0.6899302533,0.2060967471,0.1669363811,-0.3477835248,-0.828035197,0.0243870591,-0.3801098658,0.1141941725,-0.646666102,-0.8520722423,-0.2466058662,0.1427531909,0.7542372003,-0.6337982391,-0.9677280217,-0.2592174892,-0.0340072274,0.7873556259,-1.0035208331,0.1090769627,-0.8811669985,-0.6059448832,-0.7928241543,0.1207418333,0.7744864632,0.3510617624,0.6054792724,-0.0179817887,-0.946541657,-1.0014201589,0.6084078847,0.3984284417,-0.6277825106,-0.2656815109,-0.299098311,-0.2304139527,0.4264252123,-0.611625296,-0.449831994,0.4640597279,0.0436059487,0.4729629019,0.398631705,-0.5176554954,-0.5731779476,-0.7464133479,0.0092647548,0.762860818,0.0200434015,0.6901203377,-0.3341297003,-1.0114101742,0.8299448974,-0.9354700212,-0.7090450968,0.2324824162,-0.4454554885,0.6196482083,0.3224566063,0.8602945324,0.8490770396,-0.7696922859,0.6100388958,0.3891404946,0.3480042001,-0.124488862,0.6768786692,-0.044037269,-0.3492681308,0.1656214062,-0.6473496167,0.8902459293,0.646131666,0.6934236865,0.6204186401,-0.8065436327,-0.5905901783,-0.6906834243,-0.1343628444,-0.877198635,-0.3461478528,0.0613057737,-0.8093655617,0.4596161411,-0.1547924033,0.6674828251,0.9392646636,0.0932394432,-0.1610259028,0.5967190145,-0.430477829,0.6587736803,0.6579907565,0.3948158806,-0.3202759912,-0.0861044774,0.0856974595,0.6461112565,0.3495569468,-0.3374579825,0.3825022392,-0.4620472226,-0.4123288637,-0.7658006311,0.1144509407,-0.4774625464,0.1812668697,-0.1195557924,-0.9078398496,-0.1510781874,-0.9384012586,-0.4474672206,0.8025726879,-0.3879344053,0.465165918,0.4527902527,0.8229047455,-0.4123226457,-0.1567729903,-0.0762067979,0.7670261197,-0.4140367292,0.0707627661,-0.4373633353,0.547171736,-0.365638839,-0.0723091126,0.4613723718,-0.4221938153,-0.4565305545,-0.1528345596,0.6420039462,0.7200826383,-0.1852876051,0.8356537335,-0.1535246438,0.4938327005,-0.0301628254,0.4592568093,-0.9174638191,-0.89977904,0.4774648124,-0.548045002,0.200566821,0.7204700367,-0.7979959272,0.5472900335,-0.1800000442,-0.1505743204,0.28838921,-0.786734731,-0.054135914,-0.9973971867,-0.9783560713,0.841250077,-0.9625831252,0.1283478595,-0.059058756,-0.5541039983,-0.5723692742,0.2079036158,0.4046454279,-1.0059688759,0.107161015,0.1290711178,0.2145938113,0.5166803639,0.0639525605,-0.0992204232,0.6871839591,-0.1556669787,-0.1386193933,-0.5930884229,-0.8072732253,0.4481376892,-0.2445475124,-0.2855398344,-0.6145787452,-0.9573095983,-0.892404533,-0.0193499784,0.1493748253,-0.6335098563,-0.3201912599,0.4658957086,0.6033920577,0.4265931632,0.4328712538,0.526121441,0.5543296471,-0.4618125168,-0.6442211666,-0.8675451995,-0.3446169818,0.5997027284,0.1267216437,-0.3677552932,-0.1635176853,-0.2576319753,0.0440806491,-0.3025108537,-0.0088992855,-0.4269833176,-0.4653427564,0.2015920671,0.5063038453,0.3271272495,-0.6283474207,0.0451426237,-1.0033491897,0.5850560573,-0.9825924475,-0.9415260649,-1.0359786304,0.560710147,0.4212678309,0.5312215462,-0.5565412584,0.497245321,0.7766987175,-0.5864752261,-0.0651109073,-0.2596182514,0.6700705374,0.4379246643,0.5532552972,0.3978654552,0.7492221006,-0.5550876699,0.9785962186,0.5523191152,-0.0422301871,0.301793522,-0.8130391548,0.373213535,0.7891977322,0.4990829709,-0.8300866013,0.9831740017,-0.1582584516,-0.6628082231,-0.0779529125,-0.6597513764,-0.5552814612,-0.4461998267,0.2441605393,-0.8641601327,0.0136783964,-0.9507549882,0.7033745297,0.9419315743,-0.4646361791,-1.0258458482,-0.4525482288,-0.3029776212,-0.6369579682,0.1154092221,-0.8639754823,-0.1421886648,-0.0702510748,-0.7681523492,0.7589716685,0.948438258,0.7214770234,-0.3620961541,-0.6567773529,0.3950733789,0.7566116546,0.5440688751,-0.3342285984,0.0451491206,-0.0698954993,0.0120069853,0.7752763756,-0.0313774515,0.0462040188,0.8534995378,0.489060031,0.7148451361,-1.0112968722,-0.9678712262,-0.1566830125,0.1926182239,0.6084517297,0.4872383009,-0.214740593,0.3523753712,0.8690791927,0.1548141386,0.2972908093,0.3070341514,-0.5787453147,0.4760993292,-0.6010055361,0.196453901,-0.4405327676,0.7201910531,0.1885273016,0.4286291338,0.7337275628,0.5957543982,-0.6471578144,0.294819394,-0.1592378216,0.0148392072,-0.0960797108,-0.006125889,1.0083249571,0.8100843631,-0.0968467187,-0.1191156175,0.3048821519,-0.0226972717,1.0084210528,-0.4563707247,-0.6040214116,0.5505909851,-0.0994788891,-0.4628458388,-0.0285638092,-0.5200410646,-0.1974481821,0.2818809835,0.2953966374,-0.7299391841,-0.3543437588,0.4925505483,0.5691099214,-0.9153443337,0.4980378246,0.3852615722,0.1393602575,-0.7453729124,0.0391300257,-0.3866317884,0.1916026423,-0.277347526,-0.0917879749,-0.8557243508,-0.8491423831,-0.6997627964,-0.8046505565,-0.0288248232,-0.310086048,0.2281295458,0.1350023308,-0.4047321865,0.6829290225,-0.4729533886,-0.5373165184,-0.7266057473,-1.0096817493,-0.5825418582,-0.9352069194,0.6805207255,0.6484341958,-0.261900788,-0.9555399203,0.5669138338,0.8492502012,-1.0128060015,0.4495048975,-0.6262120164,0.160088916,-0.0055258279,0.4849098269,0.6114507762,-0.1617698583,-0.2359990823,0.1537351078,-0.0715291743,-0.1880041701,0.1262767994,-0.6128352322,-0.053525935,-1.0189854874,-0.3590726514,-0.6464988993,-0.6446449652,-0.2368932431,0.6021328563,0.6070652213,1.0060080105,0.2713427732,-0.5141793337,0.9617590149,0.6887775787,-0.711295059,-0.6819487386,0.6471591389,-0.6192708403,-0.245300261,0.1089243278,-0.523196909,0.4305225056,0.6732551318,-0.3776110763,0.0437445482,-0.3431875434,0.4754552294,0.2752001333,0.5278836873,-0.107581477,0.3943169298,0.0065840195,-0.3348010228,1.0222593839,0.7227866594,-0.1807911757,0.4817069115,0.0121404708,-0.003606514,-0.2326753484,-0.5473103568,0.2376295548,0.0873137082,0.1795932381,-0.677157846,-0.0151478124,0.4854311757,0.1446831945,-0.250113715,-0.181773745,0.0596963135,-0.5099309565,-0.6029599657,0.7346784192,0.5049128659,-0.5274410616,-0.0904382781,0.2018606492,-0.0326590834,0.7479831934,-0.1445384855,-0.9619407415,-0.2747291669,0.6381674339,-0.9030481676,0.8959595952,0.0699081349,0.6528850672,-0.8713210888,0.7448800958,0.3078040752,-0.1252328657,0.9796362788,-0.5412679801,-0.496093589,0.8962747296,-0.0459348843,0.7387550104,-0.1260463318,-0.091525456,0.3733180599,0.2822698341,0.3692659108,-0.2295523011,0.8419228364,0.2549269815,-0.2411242615,-0.0212915645,0.2068719728,0.5778341581,0.876860571,0.1998095208,-0.9504696934,-0.1497515813,-0.9245773486,-0.8644248569,-0.9492857002,-0.2801586674,0.2912561053,-0.8671108415,-0.070839281,-1.0002087875,0.6303466266,0.7536671113,0.5460720632,0.1211871449,0.301841217,-0.0626638691,0.9206942758,0.3102854579,0.9378869146,0.3631934193,0.0564423211,-0.2860538352,-0.2510285193,-0.6740552837,-0.6554171248,0.1770689097,-0.453660822,0.5189773901,0.3144847201,-0.9512678846,0.5537372241,-0.8406579966,-0.2756308889,0.9302673344,0.5788386775,-0.2370111736,0.2251757514,0.7553868529,-0.5906787624,0.6989935039,1.0042958977,-0.8924690499,0.6794199182,-0.797096868,0.138383348,0.4694874318,-0.245306163,-0.6013270449,0.6809394355,0.8947095824,0.7204750946,0.4028187928,0.4814107028,-0.3464942833,-0.9001536397,-0.5655991734,0.1828090418,-0.0145074478,0.6972893921,-0.8142032061,-0.5648145892,0.6555230144,0.1154624994,-0.7210238077,-0.1608889764,0.9233240304,-0.6348628137,-0.4266543171,0.2962047307,-0.1428463037,-0.7639284412,0.1805655695,-0.6778551379,0.464948517,0.7391707611,-1.0138451828,-0.5600665684,-0.0920267348,0.0339177178,-0.840871041,0.508612458,0.0948209257,-0.0629811777,0.7575391307,-0.3453287168,-0.8579190939,-0.8877484162,-0.6102996728,-0.2561886234,-0.1970420717,0.7827937962,-0.9468052332,-0.9477359078,-0.1124506202,0.8160293756,-0.1204541032,-0.2337665285,-0.582489187,0.6551298476,0.0712425888,0.6253401384,0.9873510636,-0.6516842627,0.8500394616,-0.5678916235,0.2584427255,-0.5732752526,-0.360218177,0.8493965764,0.8165163354,0.6208500026,-0.4611791595,-0.9489050145,-0.1170643369,-0.8628335301,-0.252926046,0.9327223835,-0.6096889044,-0.9150064757,-0.6985286179,-0.019975503,0.7425701057,-0.7361145262,-0.5263333122,-0.8029717563,0.3159665184,0.0475261107,0.8972407373,-0.5885316109,0.7677982642,0.2799306771,-0.0024429521,-0.7281381879,-0.7124558767,0.3944974675,-0.0515965653,-0.8055406413,-0.078911762,-0.368976752,1.0209543508,-0.2458897282,-0.515708693,-0.7234876388,-0.968782612,-0.7242275943,-0.7055675155,-0.14538492,0.1559218447,0.8032998247,0.6004782369,0.3893621661,-0.4157960007,0.1694223282,0.8598802791,0.3864255482,0.1223722213,-0.0868881204,0.9060786627,0.1483528703,-0.0640558999,0.6138051508,-0.3943462726,-0.355851887,-0.8004361913,-0.7367915353,-0.8194831835,0.1309509158,0.3234454645,-0.2711108611,-0.1957800165,0.9637164294,-0.8518498788,0.9353912248,0.5009998951,0.5645578047,0.6414307672,-0.0542264878,-0.7089841105,-0.6407794185,-0.2922100068,-0.3383999445,-0.8348077655,-0.8194687526,0.3521872512,-0.2850224668,-0.5740403791,0.5174511305,0.8076833291,0.603802314,0.4248821951,-0.0383736689,-0.7723731157,0.5294228332,0.9309055525,0.5717666515,-0.3807334449,0.248535804,0.9425600546,0.5427920155,-0.4495462034,0.4452000782,-0.1121909682,0.1248645273,0.0932346579,-0.854567746,-0.9036325574,0.4161864208,0.9178293543,0.5928036592,-0.6935113029,0.8672522667,0.9389639323,0.3422480763,0.183627843,0.3996371654,-0.0781984085,-0.6725222576,-0.5402772603,0.9183274745,0.399436911,0.4686809677,-0.668081702,-0.6072925702,-0.1051047913,-0.9866630349,0.6887644983,-0.5886455295,0.6414032832,0.1438477527,0.2346114868,-0.5807992186,0.3348665909,0.2228318853,0.4975913309,-0.3052563447,0.0502810892,0.3588186555,0.2677176102,0.8345972375,0.7735911737,-0.7919805972,-0.0089282325,0.934994341,0.2190593497,-0.565840466,-0.9206556324,-1.0290963767,-0.8715550893,-0.6008932383,-0.712949659,0.7903147375,-0.4703350489,-0.251344983,-0.8368037478,-0.5704015761,0.2304177424,0.5723989851,-0.3836967537,-0.6440924411,-0.1606767741,-0.7465076999,-0.7229071573,0.754498769,0.3367989994,-0.4999272111,-0.7540087464,0.7596921777,0.8386939984,0.0832887402,0.6818302148,-0.8927552471,0.9438849276,-0.7441175041,0.9040012306,0.9361793817,-0.6053634952,0.7891286563,-0.0588544304,0.8956970005,-0.1478405014,-0.981223416,0.4980054245,-0.4697569887,-0.6677080028,0.4943425189,-0.2684660211,-0.845939947,0.6331661331,-0.7469756239,0.8928940139,0.7177189414,0.347960604,0.0872928938,-0.1644253047,0.8549463237,-0.8590814417,-0.7539132163,0.9460472982,-0.2080958759,-0.8147525066,0.5332716531,0.5392432339,-0.3579215738,0.3747659509,0.0864659737,0.5350814151,-0.2298964488,0.4334709889,-0.5555625081,-0.926155963,0.4324657885,0.7908826241,-0.5844852753,0.8351228134,0.6301674313,0.2467630864,-0.4896096762,-0.6815181671,-0.4448530157,0.1375781974,-0.4159171993,-0.1067080687,0.9884133297,0.7719517509,-0.0532756102,-0.5078722237,0.822700581,-0.827205415,-0.9616741969,-0.1682057337,-0.5371193402,-0.9266784937,-0.7113468401,-0.0129500734,0.2250983452,-0.8208178719,0.0573554966,-0.7567380623,0.1857659371,-0.7409173311,0.4473141034,0.5680789949,-0.8030873661,-0.17420307,0.3925279088,0.8058421149,0.2043710995,0.3553983093,-0.7517033864,0.5878275254,-0.0223267842,-0.2835812107,-0.7076377962,0.3044327407,0.2644293627,0.2931017056,0.2669302088,-0.4914723701,0.7069446309,-0.3036486444,-0.6840827081,-0.1947077203,0.2027750579,-0.5357746991,0.8785862993,-0.8149084485,-0.2194950917,0.2019922148,0.2109643444,0.950694307,-0.3289144809,-0.694626493,-0.2377374727,0.21108588,-0.5381795688,-0.5643120845,-0.4136611508,-0.2553908418,-0.9813257057,0.50079918,-0.7817588228,0.1735848155,-0.8952144176,0.9514763288,0.1257047289,0.6855623488,-0.3505319739,0.0148674331,0.6975933725,0.5469224287,-0.3069957704,-0.857441242,0.9256249014,0.6369933819,0.6946767836,0.0899875435,-0.8376285272,0.3993031858,-1.0005213445,0.5787656128,-0.1676602372,-0.6073507664,-0.557359041,0.9718351082,-0.4935886342,0.0308521063,0.7181214145,-0.9306601694,-0.2085264511,0.8252367461,0.5025159946,-0.7039421348,-0.3761322831,-0.0986679533,-0.2246396802,0.0020249908,0.7974301359,-0.5451776996,0.4211551718,0.3082892426,0.4758846429,0.5028850349,-0.4776372894,-0.4487692479,-0.6708308988,-0.5550615876,-0.5572691976,-0.2081228144,-0.6628283667,-0.3845647222,-0.1225903366,-0.537989208,0.0200278613,0.2812547305,0.0254610083,-0.2939409977,-0.3156369508,-0.2436518273,0.7860961417,-0.9383505088,-0.5902726231,0.2299050633,0.1765363257,-0.8467442913,0.1317675876,0.2101222291,-0.8788742875,0.8026855533,0.5642219731,-0.1716898251,-0.1962642702,-0.397356094,0.5736596493,0.8216915036,0.3858910894,0.6125126059,0.0444675087,-0.9477549265,0.2847716833,0.2277025675,-0.4744128271,-0.7422966747,0.2051606585,0.3346779024,-0.5294952581,-0.0209950153,-0.4527456843,0.5023750322,0.4330362757,0.5619353988,0.4687471806,-0.562048994,-0.2525549473,0.7557312466,0.7507545056,0.1265612643,-0.0101784284,-0.0443598563,-0.8550262449,0.6764740244,-0.5653864108,0.4018603393,0.163466989,-0.0932452708,-0.9644153393,0.3947063428,0.8150972282,0.9079185603,0.9426092116,0.9424676415,0.7593416148,0.156314208,-0.8063315445,0.0534911306,0.3941255851,-0.79197765,-0.2144539265,-0.0987083234,-0.0164556619,0.5729011259,-0.7794675722,0.0172940704,-0.6739478556,0.433537764,0.1469699147,-0.6518829601,-0.4899990538,-0.0931078418,-0.0214538479,-0.6846441406,0.04424646,-0.4188104373,-0.3729569199,-0.9669775516,0.3100973103,-0.817989303,-0.9031215853,0.6383360789,-0.4695553859,0.2978156585,-0.9436138691,-0.925572116,-0.0626010245,0.6074474354,0.6064286152,-0.035163945,1.0077216037,-0.0301072939,-0.7287437399,-0.4988191775,-0.9991434983,0.6785956986,0.9183156872,-0.5948356714,-0.2570024757,-0.7081058392,0.3283845526,0.7928565552,-0.8184190564,0.9400577754,0.0271116768,0.9828194872,0.0576920868,-0.5294611787,-0.1522392643,0.6928517847,0.0444107553,0.9182643089,-0.4464600678,0.7582529432,-0.1749454726,0.4876424279,-0.4761632449,0.4393675235,-0.9679701719,-0.1315121963,-0.6248149895,0.2617366992,-0.3148170185,0.904986529,0.2919559515,0.0350306688,0.9098596243,-0.5525561061,0.6120758901,-0.8134330003,-0.6376571445,-0.7057014174,-0.2858355205,0.422719339,0.4374835164,0.2705714779,-0.8604100578,-0.4937163166,0.6756886628,0.1342999445,-0.2285718085,0.2338529949,0.8620733986,0.7518756029,-0.7863275203,-0.9311207384,0.8550697303,0.8221054548,0.2608414631,0.3095896614,-0.0466919609,0.2704966127,-0.0771454588,0.2032846204,-0.6795817703,-0.6418189321,-0.4641894772,0.3253993396,0.5008849566,-0.4319199375,-0.1763926034,-0.3631000558,0.0790611337,0.1781607802,-0.9468529262,-0.6678930778,-0.5654512256,-0.1623267998,1.0125654635,-1.0111725488,-0.1147301879,-0.7016648786,0.2367542927,-0.3694303109,0.5162572885,-0.3653893586,-1.0459379267,0.923024279,0.6379326402,-1.0461382922,0.2092923531,-0.1558595219,0.260677381,0.2624892026,-0.0734794555,-0.8056804391,-0.844863591,0.900135487,0.6417434234,0.2689667851,0.3380834598,-0.6355692364,-0.2024864351,0.8933544937,-0.8592217471,-0.9121048103,-0.4488023135,0.7356704124,0.6414732254,0.8647778325,0.281531885,0.9222958188,0.1580744303,0.6223484166,-0.3720704368,-0.1034820242,0.1858715031,-0.5064583735,0.6380980824,-0.3599782101,0.4961403015,-0.055013551,0.0609499487,0.2025607849,0.679945288,0.3756743739,-0.1744583723,-0.292060062,-0.6969853573,-0.3926222802,-0.8594181721,-0.020664213,-0.0069517688,-0.826386888,0.3318420489,-0.1867527823,0.2339345114,-0.0888308754,-0.9135322653,0.6961763587,-0.6108923946,-0.0825158907,-0.4441674967,0.0842971788,0.2925838777,-0.8258877559,0.1530509605,0.7211084436,-0.5308066363,0.6212031115,0.1316861505,0.2251170054,0.2499183292,0.6427373058,-0.7351973624,-0.9052615665,0.2730754492,0.3497896833,-0.4327845867,0.6760883836,0.3194468093,-1.0588993808,-0.7163537294,-0.3696780563,0.487874057,0.976878949,-0.2794747879,-0.5981531848,-0.3881896125,0.8692067412,-0.5377555399,0.2530021429,-0.8125805146,-0.6136365689,-0.5014176323,0.6878187154,-0.6998928012,0.9053690645,-0.7187499582,0.8524464034,-0.1764909184,-0.8004936973,-0.3074938532,-0.0980618261,0.7603217371,0.5993851023,0.0080069903,0.3384152792,0.1958511593,-0.745566471,0.2408217528,-0.6749802445,0.6709815556,0.1361308817,-0.8266000998,0.1238917832,-0.9556942222,0.4403234616,0.8254817107,0.5925086305,-0.2582474832,-0.1592243773,0.0354362158,-0.8546871001,0.0106230839,-0.8980781213,-0.7109702503,-0.1956729069,-0.8045412535,-0.1912004541,-0.6685984063,-0.7736701125,-0.3407610905,-0.4385271268,-0.1679028165,-0.3761379467,0.4809105029,-0.2677031377,0.8619861148,-0.5901474145,-0.2707767093,-0.5248374125,0.6006476762,0.6743008113,0.282152709,0.748577824,-0.7819813316,-0.7843906781,0.1786523298,-0.9325004541,0.614016222,0.1070014106,0.0520377956,-0.4370023819,0.1242935584,0.3552482794,0.0161926765,0.9077948528,0.7565664416,0.2458472477,0.2746118875,-0.6348850297,0.5797524005,0.9314642873,0.4447241819,0.3797180208,0.315856163,0.6155299765,0.6827798959,-0.4210872653,0.6711245762,-0.0423912055,-0.5423144595,0.3696083955,-0.3667350488,-0.5452219449,-0.7455916758,-0.8972879694,-0.1853531076,0.6073598459,0.0338765939,0.8979325028,0.5274180024,0.386170037,0.2157537653,-0.4216586757,0.0420569283,0.8585700946,0.0968428181,0.9520426492,0.4798003798,0.986261196,0.4402549578,0.0508710015,-0.104271014,-0.0346339046,0.5427273291,-0.6247365628,-0.8625354312,-0.865819159,-0.4097315478,0.701543952,-0.1054458753,0.7152410976,-0.3192073039,0.4592177171,0.1927854704,0.3035713463,0.7609796041,0.6481880343,-0.839095351,-0.1612988268,-0.0697038465,-0.8860581586,-0.6463247508,0.7716724623,-0.3053273785,-0.5563510462,-0.9269184449,0.4348585246,0.3183427998,0.4047863264,0.7472604703,0.4144144334,-0.2800064245,-0.5214155386,0.2553407799,0.1654512562,-0.7728590704,-0.9823635111,-0.7072098629,0.1917700935,0.8014682941,0.4351644891,0.1815812479,-0.4452491245,0.9027325645,-0.9414568948,0.0986714825,-0.814978208,0.3613856972,0.1079623518,-0.8440959786,0.6151736899,-0.8085107803,0.9616396443,-0.9498513723,0.9862182031,0.6481833947,-0.1224921961,0.0080621305,-0.0938440865,-0.3283800972,0.9543330791,-0.8800399567,0.8112366917,-0.6716259154,-0.4115872214,-0.6664542334,0.7105908606,0.6224800987,0.039708675,-0.8407853023,0.3667069427,0.5636908665,-0.2984363227,0.3291713973,0.2949139283,-0.2680804215,-0.5686335651,-0.5733509604,-0.7191460418,-0.9128490086,0.4850211573,0.5407459851,-0.7311075676,-0.9986235822,-0.2577408181,-0.0958364694,0.6072497109,0.027979853,0.8000117856,0.7931440144,0.8930085051,0.9366360546,0.8336313792,0.6487026991,0.1178547415,-0.0967704945,-0.0784416649,-0.8586140323,-0.0029212321,-0.4162990272,-0.5319005497,0.7142925503,-0.4337665124,0.4593388882,-0.6213179542,0.4305548196,0.6894753314,-0.0510084193,0.0188559316,0.4263781493,0.6945609993,-0.8378582747,-0.4399342739,0.6608458426,-0.6547234627,0.5691826784,-0.4218485514,-0.5366189988,-0.3935719123,-0.177167779,0.060864924,-0.5926378511,0.3245186786,-0.6989848286,-0.8860408959,-0.9937422765,-0.4564283703,-0.0398397607,-0.2087242994,0.7845119757,-0.7201111707,0.0636247102,-0.4480260386,0.2262903575,-0.6653256576,-0.1479466144,-0.3219648217,0.1785915409,-0.8531417921,0.1601026355,-0.0475444715,-0.6683402554,-0.6001792446,-0.8526146537,-0.7415633653,-0.4506591435,-0.4457598363,-0.3826300242,0.5110197928,-0.1674093362,-0.6087282595,0.245678007,-0.7840663434,0.43630235,-0.0329907023,0.5108676794,-0.2576955748,-0.8906848643,0.0708093143,-0.5137168378,-0.7057632394,0.6091654261,-0.5504079586,0.2080258845,-0.1832159023,-0.7625624406,-0.5422082096,-0.6329917319,-0.0363528327,0.6448788854,-0.7877767066,0.2464336229,0.3526210057,-0.0479518152,0.4982571041,-0.4111588699,-0.6716465903,0.9666293959,-0.58278795,0.5355870927,-0.5950430327,0.6745723417,-0.8688097249,-0.0144392007,-0.0788477233,0.4069703873,0.7574576966,0.7872201655,-0.8876254589,-0.5830899322,0.5664008392,-0.916376434,0.6059654205,0.6409086852,0.6477962406,0.0720610384,0.8104029384,-0.8890585013,0.3333237009,0.7258496863,0.0119876471,0.9502701299,0.362100131,-0.2300161824,0.6674774736,0.083509019,-0.3785767207,-0.014136553,0.4852510502,0.1008378981,-0.1794967706,-0.6278505209,0.3414013393,0.0278885261,-0.1798355534,0.3840112982,0.7960194015,0.519206142,0.8829448681,-0.3516641431,-0.6666973142,0.0578594182,0.3640321118,0.7022985242,0.2197573556,-0.7508156437,-0.5189790853,0.4602632601,-0.9420052493,-0.4994708389,-0.329100263,0.0771866993,-0.49102379,0.7525945218,-0.5990466136,0.9475189951,-0.8391660517,0.4032578499,0.5474744876,0.8747020334,-0.2440784032,0.2095727608,-0.3616681585,-0.7538087102,-0.3178731816,-0.0254036232,-0.7244543501,0.3577014325,0.7885133248,-0.8817216855,-0.5459005331,0.8452292556,-0.3198336533,-0.0709806702,0.0097572911,-0.2290755298,-0.2324414204,0.8202014139,-0.3172208854,0.5795008274,-0.9028837491,-0.4427082558,0.5099865332,-0.4736975158,0.6610544442,-0.2027028702,0.779327497,-0.2406829688,0.811801346,-0.8556684937,-0.8650914038,-0.7804010985,0.2189433841,0.3324665884,-0.5300506174,0.5035856242,-0.4149509337,-0.8419749269,0.8371002768,0.6130787411,-0.8315227122,-0.3934589262,0.0498956088,0.5308050132,-0.1745630801,-0.1502258633,-0.1904341424,0.6594756521,0.1091614277,-0.1790124593,-0.1145150504,-0.3323744342,-0.9799166105,-0.1484884457,0.2232421209,0.1241275969,-0.0721878802,0.6965934886,0.4743321425,-0.9692266712,-0.0427925075,0.491139019,-0.0226786936,-0.3192542331,-0.1732089799,-0.2274124483,-0.3108227003,0.2007638434,-0.264322063,-0.8245137918,0.6887587559,0.3814419274,0.2333278689,0.3929627584,0.1810023005,0.1253594133,0.1875358946,-0.8656297018,-0.8908458508,-0.5835888235,0.490152673,0.2411658931,-0.7995198289,-0.233433475,0.3359317857,-0.6059762236,-0.8473382131,-0.4498645833,0.4432166237,0.0605731436,0.3433838225,-1.0059080172,-0.9395526087,0.9202609329,-0.8527788197,0.6467651236,0.2994203472,0.9425457738,-0.5843523163,0.5823529085,0.8344989223,-0.0261883055,0.9693408895,-0.2158003865,0.4392418122,-0.3034890048,-0.0131467312,-0.3984421582,-0.886826397,0.8283790108,-0.4130082416,0.3333051236,-0.5967089814,0.0915720522,0.9364652896,-0.8579534991,-0.4667220299,-0.6423827768,0.7767865921,0.5465709369,-0.3075887995,0.462316296,-0.0532653409,0.3356017552,-0.0075452818,-0.2883800172,-0.4308794544,-0.9844732205,0.471242875,0.1292236173,0.0824304225,0.6815719121,-0.6282673264,0.6024068978,0.5325381143,1.0284505727,-0.1782762782,0.1086339377,-0.4039377252,0.8427035538,0.9401350576,-0.6052839615,-0.1174240227,0.0743440865,-0.0316814544,0.3730219432,-0.9363714369,-0.425952521,0.3806103462,0.9115683311,-0.9004860434,0.6208724868,0.9804763754,0.1351041524,0.7643724153,0.9323980081,-0.1961651661,-0.2540717739,-0.5090147955,-0.3846231163,0.6492881211,-0.4641222551,-0.3326042033,0.5270556708,0.8621568932,0.9070789888,-0.6156868447,-1.0184026897,0.3813650991,0.6843699589,-0.9856833537,-0.4461117843,0.4516766331,0.0370476812,0.7617843119,-0.3661319374,0.1251073045,0.6798076018,-0.5227561561,0.6342218885,0.5509077467,0.2398194798,0.1808924235,-0.8702355068,0.7435266886,-0.1671829552,-0.037094148,0.952251753,-0.9564716403,0.7784663744,-0.9347519339,-0.820862285,0.5611649712,0.3253059879,-0.5345964775,0.4950144821,0.9075364865,-0.5011928707,-0.0349445525,-0.4226003714,0.3924818311,0.5327661695,-0.1585073545,-0.7220985313,0.0211895883,-0.6214919021,-0.0988588053,0.2200960954,-0.349028908,0.8531981834,-1.003194745,-1.0250632725,-0.2258437495,-0.7070975701,-0.5172927164,-0.1364182586,0.9612101524,-0.6875313753,0.2086293413,-0.4167306254,-0.044175165,0.7898503985,-0.040446581,-0.9610906901,-0.5033354206,-0.0065269116,-0.6547971394,0.816240657,0.5812940314,-0.5022454712,0.1795444352,0.4189214164,0.2813136144,-0.4302269567,-0.4813298441,-0.4462634508,0.9508427213,0.6235717019,0.7391016024,-0.5580361755,-0.8682951595,0.5388815293,-0.2186873093,-0.131443167,0.3418822971,-0.6275328152,-0.3960014821,-0.5279375838,0.9548509173,0.2977464409,-0.9488938253,0.8102492442,-0.6991597206,-0.6124862203,-0.1781929126,-0.4032501787,-0.9362063768,-0.9040202978,0.4289999017,-0.0425905258,-0.7517195802,-0.8474602614,0.3369870792,0.5036163284,0.5304169156,-0.8209537745,-0.8308606985,0.6139593378,0.7623011108,-0.6615229519,-0.7633286384,-0.3501144061,-0.4739445357
   0.5130471511,0.5362947977,-0.5847983171,0.1310348638,-0.1714012805,0.8641990924,-0.7388893704,0.5251910991,0.8113271751,0.7847213442,-0.5772977463,-0.3577062501,-0.182478648,-0.3690917032,-0.9662455176,0.0832403001,-1.052997634,0.9246420195,-0.9041812648,0.5953439984,0.8050820041,0.7107755984,-0.9216745604,-0.2247749276,-0.8035614275,-0.2349319188,-0.9794775728,-0.2815921461,0.4767306545,-0.5052245701,0.4116427433,0.3643314371,0.5771293247,-0.4830938086,0.745651344,-0.4965584194,-0.5074384717,-0.7148049868,-0.9776501909,0.3433329685,-0.1821422122,-0.7776543304,0.1777116542,-0.1047949125,0.7606413995,0.7486062024,0.4377125269,0.0218154865,-0.374082756,0.3550545969,0.6735998386,-0.4170364979,-0.5209027195,0.2254940524,-0.0857331888,-0.5552756596,-0.7480404995,-0.3269079851,-0.2959366899,-0.4852732009,0.0691577549,-0.6647660421,-0.8862048377,0.1648801106,-0.2654205547,0.7457521446,-0.0527821895,-0.1136372428,0.0056550176,0.0822058619,0.3891082203,-0.3168193864,0.1277151626,-0.0695861929,-0.1643287669,-0.4207146516,0.9045652592,0.8529457208,0.8529007605,0.0582921058,-0.8803154857,-0.1149641943,0.8733790775,0.7310744623,-0.6619886014,-0.0912795693,-0.1888437435,-0.222590658,-0.700057517,0.3727363033,-0.4988054844,0.527671045,0.2471077237,-0.1101734119,-0.738111606,0.0723401538,-0.1025129184,-1.0577349733,-0.0354810697,-0.2898114353,0.4284867251,-0.8252739614,-0.0139534861,0.3760401597,-0.1417524344,0.6413763176,0.5828043295,-0.0467774251,-0.6551463732,-1.0385921423,0.6582020026,0.3885773437,-0.3941364275,-0.7037318255,0.2043545949,-0.5551975343,0.4129621247,0.5303257007,0.9009789512,0.7884327036,-0.7276109833,0.294907678,0.2022509019,0.0832051813,-1.0752145218,0.6663123888,0.7689756766,-0.4769524185,0.9809762221,-0.62536695,0.8610710869,-0.3425784046,0.7633563381,0.8840995554,-0.9292992764,0.6679401434,-0.3702932029,0.7700817453,-0.4424939735,-0.0140854681,-0.2554485251,-0.6686711103,-0.375277374,-0.2090734946,0.2359350526,-1.0278120738,0.2956126521,-0.1372013464,-0.194772786,0.6807566981,0.92610467,-0.0631943432,0.6483981806,0.0306775288,-0.989461943,0.9481938334,-0.2841871424,-0.4855898275,-0.713499986,0.799388943,-0.5029574007,-0.7177644937,-0.0579219684,-0.0379110558,0.765117665,-0.1084994479,-0.9927439981,0.1335919804,0.3807839691,-0.5328576532,-0.375241403,0.6969161642,-1.0368459827,0.7844109982,0.0983622217,-0.3243370281,0.6704601613,0.847571341,-0.0306476821,0.6542617265,-0.502300087,0.239431781,-0.6973982806,-0.9794068598,-0.8906514732,-0.9706648164,-0.2261431563,-0.7325028806,0.5800042795,-0.8880166859,-0.1281899273,0.7066006736,0.1612348799,-0.5078435598,0.3496504823,0.8169152581,-0.0386360648,0.5366397235,-0.2320398426,-0.8016245865,-0.7548743711,0.8486737556,0.3130209407,-0.9829268576,0.1219522991,0.8845869805,-0.9971753299,-0.7603790482,-0.1966731271,0.0972861266,0.6585894554,0.1677721,-0.2281326399,-0.8595386699,0.595945625,-0.232383684,0.8340534268,-0.9059404181,0.9707708178,-0.5757975222,0.7935767917,-0.9520427681,0.284419523,0.2329877353,0.6599650766,-0.3039130566,-0.7722006984,0.0878150946,-0.5100088832,0.0813348352,-0.5555339373,0.7478702623,-0.4020583425,0.2398929993,-0.362667053,0.7522665189,-0.0620777997,0.0574908749,-0.5518330464,-0.7914518399,0.2398292955,0.0790912331,0.4423078181,-0.3690911529,-0.5775418716,0.8910943083,0.9110020693,-0.8348301688,0.6227844591,0.3271717506,0.0085371917,0.4417590761,-0.2462942869,-0.5262792751,-0.3765969337,-0.1344795274,0.7456190071,0.544026031,-0.7642719106,-0.8285855176,-0.4712804711,-0.0141567678,0.6826576498,0.4399683768,-0.0122530254,0.1340832375,-0.707303153,-0.9680567563,0.4731484507,0.9519734537,0.6723291953,0.1863599641,-0.8434625172,-0.8848165403,0.3670629773,0.2780630843,0.8101826946,-0.3375264686,-0.3948227021,0.6293954809,-0.9984980795,0.3910548139,-0.0286654137,-1.0112928785,0.0795338108,-0.3748471526,0.5327042052,0.850681633,0.2018273847,0.1954391809,-0.7139763091,0.9817255644,0.0784648286,-0.2396809689,0.3419593996,-0.098224408,-0.4734054841,-0.3226530196,-0.013373926,-0.6792763543,-0.0990942615,-0.3750833672,-0.4337994666,0.9099212027,0.8564542112,0.8950992076,-0.7694678257,0.1055462518,0.1947845189,-0.1249230503,-0.4965345673,-0.0188521133,-0.2655167202,0.44298319,-0.8775800302,-0.9786204001,0.7217279777,0.1209576925,-0.6043222158,-0.8473427873,0.6846553845,0.8687180528,0.6026794841,0.8495110536,-0.8291991574,0.8721235824,-0.8980074644,-0.4266726219,-0.5833064128,0.2714314278,-0.9998223466,0.539688384,0.7645294581,0.0795098987,-0.3485181384,-0.2205768362,-0.7734393705,-0.7198932419,-0.6379744983,-0.8651837552,-0.0625619802,-0.8753318116,-0.3281462917,-0.6587714904,0.708446417,-0.0263381014,0.8412797644,0.8125492415,-0.8653321683,0.8255636668,0.2332488738,-0.0792773737,-0.3248025015,0.7852256063,0.103577186,0.513947695,0.4318840228,0.7470751831,-0.4636789714,0.3695326414,-0.2581100972,0.3561595946,0.3195106189,0.9008305259,-0.1961371529,-0.4645432472,0.4508621383,-0.8182281247,0.8174039886,-0.4552792756,0.8222264205,0.1159784392,-0.1133133212,0.9481246897,0.2305055756,-0.6889085183,0.7134844538,0.888396394,-0.2799103635,-0.7104012386,-0.5110941833,0.0389931575,-0.4294624577,0.7917360053,0.0544849165,-0.1671358237,0.2327146684,0.4112006389,0.365728715,0.7402601331,0.4216121912,-0.2886053777,0.4241257395,0.1518492962,-1.0579913989,-0.0234004586,-0.6846057131,0.3143001002,-0.3571860496,-0.0713045974,-0.6113289433,0.4962588502,0.6899727417,-0.3342989829,0.4176456935,0.8625380114,-1.0860825922,-0.0629238498,-0.0459698078,0.8116599798,0.7268009642,-0.4911559948,0.6955850246,-0.9232723775,0.0551475093,-0.4121924089,0.7505625052,0.6624101622,0.3434504332,-0.9146740506,0.7298022411,0.6928332988,0.2019667038,-0.7847898202,0.0323205504,-0.659765049,-0.3020840236,-0.6412192309,0.7396261755,0.2268349972,-0.3645496165,-0.3341526537,-0.9604035559,0.3838696382,-0.1736356326,-0.2098799454,0.2872436438,0.2430071738,-0.1094689931,0.8815325616,-0.1501376642,-0.4743292141,0.0042280534,-0.4854507835,0.1191717105,0.318990416,-0.5547107038,-0.5091188351,-0.6358046254,0.8513716455,-0.2379689305,0.0580535449,-0.042541232,-0.3065553006,0.8167645691,-0.3581740255,0.2446706226,0.4092882133,0.5460274376,-0.067654687,0.0222770108,0.5790704632,0.7759676991,0.3357609716,0.6306287182,0.1233450501,0.838622096,-0.6838165252,0.6659930801,0.7543514973,-0.0762343961,0.8146366677,0.7925418282,0.887213474,-0.5738532931,0.6647734549,0.1319643123,-0.3768255896,-0.3942050513,-0.391737424,0.6814708858,-0.4400432148,0.1267699534,-0.6791047351,0.6476110679,0.8864646629,-0.8379879506,-1.0389736333,0.2315874233,-0.3339136893,0.5189787259,0.8612941915,0.0056446692,-0.0661021782,-0.1204761986,0.4177538844,0.7384287421,-0.4702182061,0.011504973,-0.4687179968,0.5397391951,-0.6424031807,-1.0051083474,0.4551823881,0.5343999774,0.4104666736,0.5605337059,-0.1263824968,0.9303873673,-0.6264958191,-0.365200623,-0.1291207785,0.2164072974,-0.6263322342,-0.4765229124,-0.3654898646,-0.2113008016,-0.5785990602,0.1652183001,-0.3750639834,-0.8586924267,0.5412770122,-0.356655791,-0.3543703908,-0.1587529079,0.0859540868,-0.1036586991,0.7014977859,0.2505246981,0.2579465342,0.1965307016,-0.230429426,0.3674366881,-0.8340981399,0.9023077726,-0.7558544251,0.876173985,-0.8786000997,0.7738464802,0.4946449612,0.9000802279,-0.8352175827,-0.4313518151,0.2716825415,0.4574454633,0.6333577885,0.6842669672,-0.2985191601,0.7247052706,0.7893149184,-0.8109654327,-0.6520895748,-0.5512132223,-0.2337600445,-0.6428684551,0.2326413501,-0.2046518263,0.2713354534,-0.328438141,-0.3601496958,-0.7061991218,-0.1739631589,0.3001741503,-0.9269726282,-0.1770925177,-0.5098469265,0.3679496572,-0.6037116649,-0.7354067723,-0.6153590514,-0.2295926467,-0.9205666405,-0.1618055357,-0.6761995433,0.8575850667,0.3116431272,-0.74771402,-0.0413390107,-0.96364974,0.9029988128,-0.9594772288,0.9269581744,-0.8769850223,-0.5838529064,0.9458638639,-0.6382029497,-0.0077840426,0.4095806076,-0.2150729455,0.128064356,-0.5020164486,0.8880932765,0.3262577696,-0.5810839178,0.3171369225,0.0363674126,0.5582274714,-0.505793865,-0.0232328556,0.6678179777,0.6571573003,-0.2715849282,-0.7862210737,0.1449537519,-0.3952913407,-0.4911995001,-0.1198989944,0.1041261928,0.9103467198,0.7089260011,-0.5882213979,-0.1135352641,-0.9493411088,-0.2497648481,0.0813206039,0.6663330708,-0.4223515139,-0.6965533891,-0.4920929549,0.7664863357,-0.7131588449,-0.4408047271,0.5306121912,-0.2336771175,-0.6586499751,-0.2883502979,-0.4908997566,0.7041687796,-0.2223274125,-0.173504448,0.252465545,0.8698702553,-0.0392148656,0.9434240104,-0.9386712449,0.9358943079,0.0446204061,-0.6294572241,0.3817251406,0.65996089,-0.7952275138,-0.4412311204,-0.8458116344,-0.6449000377,0.355514658,0.3839276917,0.8197546208,-1.013739798,-0.1578427516,0.3077307868,-0.9050058645,0.4850220786,0.0876048461,-0.0991501908,-0.557128203,0.2653267201,0.9423217285,0.9975904829,0.2735242711,0.1471999461,-0.54722467,-0.4551922064,-0.2906134424,-0.33964257,0.3021027011,0.1567982323,-0.9359753264,-0.6787793063,0.8201608124,0.7983824419,0.6930905686,0.0162478222,0.6311605217,-0.7675906989,0.3020713365,-0.8742048761,0.0277133681,0.8956868649,0.8169602421,-0.4204709035,-0.7480119572,0.0097218374,0.8206835237,-0.0491012599,-0.5921417081,0.1592514771,-0.945294772,-0.4728275748,-1.0155391116,-0.5794896591,0.6919118772,0.5161314732,-0.4171684485,-0.7380661422,-0.8028753068,-0.3565898116,0.1255908343,-0.3013788595,0.8453452621,-0.6660294968,0.8426613209,0.5511110105,-0.1285266031,0.0705209876,0.0532015271,0.5154606268,0.1884278098,-0.3535164657,-0.6490931261,0.0704866051,0.042086474,-0.0474485907,-0.2601798374,0.3220217881,-0.544752006,-1.0729392679,-0.6887952276,-0.596870311,-0.0712221074,0.5452382647,0.6870949535,0.059641447,0.2083300621,-0.2814121561,0.5963728575,0.934315503,-0.1284186016,-0.9834580508,-0.3424101454,-0.3408339589,-0.9346998054,0.7124513055,0.9170302744,0.2554541414,0.2215015635,0.0705263469,0.6192219108,0.1849104516,-0.1140094671,-0.2090956824,0.8798130924,-0.6727343714,-0.6550288501,0.7254723227,0.8249052508,0.8457677192,0.9222484131,-0.8997912248,-0.3439920135,0.4313650752,-0.2167398642,0.5906611724,-0.3114896876,0.508802537,0.2184537497,-0.0241587017,0.4388213607,0.1001693029,0.8778942284,-0.5326911218,-0.5036132077,0.6427176809,-0.0336863441,0.0543962895,0.8265635938,0.4739232362,-0.3974888513,-0.8677282589,-0.9340227082,0.8203666654,0.2050046327,0.5344646813,0.698836352,0.6058506326,-0.7133077945,0.6629433708,-1.0140735155,-0.5192375445,0.8021838826,-0.2464313836,-0.8226990385,-0.1424228203,-0.938246461,0.1687289335,-0.1446399741,0.0724174193,-0.0250485044,-0.7205974742,0.7109090847,-0.9076273232,0.1203042838,-0.0719379752,-0.3693671608,-0.4755811855,0.8462062146,0.9747491108,-0.9414340026,0.6303238779,-0.9857596407,-0.6085320028,-0.1035008289,-0.8739002026,-0.6583482664,-0.0710282756,-0.8030328542,-0.0702379922,-0.5296214527,0.089133268,0.1639339143,-0.0363557577,0.5238103365,-1.0411023353,-0.6707859841,-0.0341931607,-0.6503999027,0.1713344617,0.6792775824,0.5483296652,0.166409359,-0.494386552,0.0779839414,-0.1828083259,-0.7701485439,0.2657484891,0.5907783117,0.6038457323,0.8941936964,0.4526941431,0.6665646234,-0.6134271493,-0.7382369646,0.1845339296,0.1426156227,0.2688550601,-0.3464086643,-0.0327064017,0.9886937269,-0.3236970854,-0.0247898586,0.4311091347,-0.2151401902,0.3493524667,-0.501283636,0.6931175821,-0.8819348736,0.3201103717,-0.6342018496,-0.8211806132,-0.0969486823,-0.0410984948,-0.8564157434,-0.1687947514,-0.265013628,-0.4778675129,-0.5398419146,-0.7053925838,0.6193241186,-0.4879602994,-1.0067713938,-0.2151336239,0.6223345768,0.7222672537,-0.9639549437,0.1549017673,-0.7066662632,0.512177124,-0.5919867947,-0.5369871328,-1.0039742146,0.5225300544,-0.4131330824,-0.6141610786,-0.5511746431,0.8427015418,0.0433837587,0.9455397623,0.6012092066,0.820527745,-0.5485473594,-0.443336538,-0.9420399647,-0.0611595282,0.5087426844,-0.683548227,-0.8881283488,-0.9932347089,0.2348469719,0.6232396578,0.5110866037,-0.1009989429,-0.9279007361,0.4395703714,-0.0815899607,-0.6657192289,-0.4999534696,0.2271480362,0.6101660839,-0.1270707726,-0.9208032927,-0.9071977361,0.0189938541,0.2996905472,-0.0082063333,0.6009401098,0.709658456,-0.0602289528,-0.0943165092,-0.2154930466,0.8927391931,-0.3173300472,-1.0238790243,-0.2765157,0.4953088725,0.1259099217,-0.9411307943,-0.1420258327,0.3937489166,-0.3371452209,0.2595110068,-0.1274350064,0.5111516322,0.4198295382,0.8090014844,-0.1400299509,0.051111847,-0.677959488,0.342305544,-0.0365521555,0.8288538605,-0.8287144622,0.2904897273,0.5083796374,0.7958991498,0.4113307216,0.4795551838,-0.9937218709,-0.2896861346,0.8160731671,-1.0022285973,0.7048626751,0.6158477375,-0.4854001752,0.2691244377,-0.9843701795,-0.6984234377,-0.338985407,-0.3565264178,0.8459964063,0.5419458156,-0.8100716817,0.8941695718,0.8993127995,0.3851854503,0.5682948328,-0.6934436551,-0.0595172279,0.359585653,0.1637578262,-0.4772789233,-0.0148847019,0.1100592133,0.8101951658,0.8220772374,-0.0179382823,0.1477561063,-0.6464412705,0.847778558,0.9115267903,-0.5855956606,0.9499342796,-0.7589769919,-0.5280381848,0.9548541279,-0.0000609733,0.10297533,0.2049401154,-0.3124189163,-0.2553148915,-0.3315343279,0.944443146,-0.6602402557,0.3958655729,0.0305275681,-0.2698047471,0.0792013496,0.1770414429,-0.5613994164,0.423990711,-0.9922996589,-0.9597473753,-0.718860036,0.2045022862,-0.6701965536,0.3137141807,-0.9406699147,0.2556960812,-0.0355983237,-0.6248145642,0.2897804076,-0.6859525677,0.906733456,0.2488511294,-0.8470322711,-0.8876079292,0.3903994957,-0.6366915213,0.2272010461,0.9591399311,-0.3812925957,-0.1884017981,0.1041559425,0.4403702187,-0.7015778988,0.170932679,0.2958594442,-0.9037313082,0.2185223474,0.6854895838,0.2933116426,0.660715957,0.5875728428,-0.3040544112,0.797656461,-0.6422963042,-1.0204362887,0.2878315716,-0.9378475908,0.6217670169,-0.0554428229,0.4281369123,0.7104896864,-0.6272910241,-0.723673571,-0.297670735,0.1680959914,0.8674291421,-0.6840741572,-0.2730874127,-0.4957745011,0.6259643358,0.457506161,-0.3629042686,0.1745588328,-0.4161632483,0.1413708621,-0.9531248836,-0.3583482668,0.7439951835,-0.5649998152,-0.2595560426,0.691876526,-0.2528627957,-0.7146803944,0.0922863492,-0.1440815731,-0.6504146453,0.282551485,-0.3877312648,-0.3080983972,0.2623079289,0.2096481674,0.2430142931,0.4453350967,-0.0408975579,-0.9941995089,0.2612511381,0.420482171,-0.1360506477,-0.6337719794,0.4143399878,0.2459784221,0.0324891802,0.5811455391,0.550450847,-0.4775045508,-0.8850925191,0.4615412389,-0.6235301436,-0.0355841562,-0.8208621295,0.2281884077,-0.693946186,-0.8535450323,-0.2422509433,-0.6826310901,-0.0354052409,-0.5636434435,0.5014433516,-0.8517930234,0.9192876461,0.6123089185,0.3861204345,-0.0625579189,-1.0757385312,0.8990378312,-0.916756458,0.6105721686,-0.3133541293,0.9189406761,-0.0339959709,0.7525752865,0.0683988239,-0.6465230614,0.8848202863,0.2931041116,0.7049483383,0.7420851937,-0.5035940409,0.6934779565,0.8848092112,0.5680592521,-0.0798664986,0.6311925454,-0.1512409946,0.8299501419,-0.3638374493,0.475814735,-0.9985756244,0.6086408197,-0.784906687,0.0728037645,-0.5836062505,-0.5263476565,-0.5951577539,-0.9780374411,-0.4404617156,0.1862628678,0.8337176482,0.2609326231,0.3803511808,0.208698535,0.4157038274,0.1168409062,-0.6666389751,1.0030929642,0.737765658,-0.2444720967,-0.0190920167,-0.3307937146,-0.0802138615,-0.309432034,-0.0318445014,-0.7276635737,0.0120780983,-1.0556815165,-0.9821873227,0.2792768458,-0.0963588327,0.0960678645,-0.2438245211,-0.7750345716,-0.5806357626,0.5187791664,-1.0197442128,-0.4686646356,0.2945031986,0.5526696787,-0.2978372629,0.9408606469,0.8923590852,0.4362857942,0.0980953768,-0.5389240266,-0.2373962496,-0.092034268,-0.5886033335,-0.6383173255,0.2481631006,0.5011372662,0.5300214455,0.9656697844,-0.3835758347,0.627258565,-0.1926051022,0.1579088332,0.4071578098,0.4713736196,-0.5783122496,0.3269871015,0.874234565,-0.9424824748,-0.9731220872,-0.8512229968,0.7253792347,0.1423114751,0.8357657703,0.5372950615,0.5004956349,-0.3483223526,0.6127580903,0.0742846789,-0.5566096599,0.189207215,0.7675949703,-0.8244508067,0.1131062492,0.7876890793,-0.338975204,0.1683177422,-0.6508318611,-0.281108691,-0.1779611554,-0.5874331053,0.915332999,-0.8232832392,-0.6177330014,-0.6382977084,0.3369831843,0.9205995868,-0.9233484814,-0.4967474528,0.5062062319,-0.9331315008,0.6551397088,0.2502688642,0.151965439,-1.048306657,-0.2821610827,0.7791003213,0.4115496176,-0.1511723267,-0.7497463394,-0.1254163578,-0.9004787448,-0.7435437972,0.7148297839,0.7568731912,-0.013980923,-0.2421146694,0.9800398712,0.4760126447,-0.9177581303,0.7053972739,0.1232381581,0.8836780574,-0.5737772005,0.5967994873,-0.2966673246,0.3134594636,-0.5918762296,-0.4514794811,-0.72301642,-0.1772014299,0.8366682786,-0.3252607912,-0.8216750398,0.2231108683,-0.967348832,0.4283752628,0.3381571154,-0.6810998067,-0.4938261592,-0.2702040037,0.7257964958,-0.1403992455,0.1096962527,-0.7421061112,-0.2125988131,0.063069356,-0.8909274136,0.7694221436,-0.0157132921,-0.874830618,0.7154316655,0.0564942634,0.5512613447,0.2573496808,-1.0451241343,0.3384661076,0.5989325872,0.2153891353,-0.4762199856,0.4257577609,0.5768490177,0.1621513023,-0.0221341737,0.3550843667,-0.0732040608,0.5073975938,-0.6419376557,0.065673918,-0.5158913105,-0.7050859096,-0.8578414799,-0.2687703755,-0.868653721,-0.088818194,-0.2329899871,-0.9914051414,-0.9166657863,-0.7672145928,0.8238353164,-0.7746221169,-0.2987843497,0.1287589889,0.5802430379,-0.7396309197,0.9185355201,-0.7065233289,0.1425514828,0.6682566682,-0.6945271885,0.8969381855,0.1142636756,-0.8418199356,-0.230343761,-0.4342237051,-0.3810287322,0.7819077719,-0.7165529091,0.2817142157,0.8601048829,0.7177438847,-0.3944161049,-0.8059906814,-0.1814996487,-0.96852951,0.9308923476,-0.8689984779,-0.2672680371,0.007096337,-0.2933120002,-0.0201558469,0.055909624,-0.8244475362,0.3695092582,-0.2583768999,-1.0625421618,0.9738884746,0.0426902618,0.6088187785,-0.1500314487,0.8192094021,-0.29427317,-0.0487457386,-0.5390618801,-0.4189912922,0.0627715253,0.110717164,-1.0585996373,0.1427275538,-0.6387628803,-0.7726257046,-0.8798842438,-0.1464742417,-0.7913801514,0.4291728241,0.4622244032,0.2077549844,-0.6560998865,0.5223568866,-0.4555200131,-0.6872632114,0.5792372703,0.0520161646,-0.9183062559,-0.2675115122,-0.7767056095,0.8516083664,-0.7243575251,-0.5829629526,0.0086594692,-0.7619107645,-0.3989925004,0.7449239784,0.1727515598,0.7671521965,0.7476887317,0.4908384322,-0.6795912393,-0.3469150303,-0.9293666412,-0.1556115526,0.8501321828,-0.194082652,-1.0531752501,0.0721572545,-0.5055981406,0.4479487332,-0.5649029296,0.6224173336,0.0705657245,-0.145712269,0.4278229303,-0.4815483316,-0.3136865416,-0.9330606965,-0.7303534327,0.1359763084,-0.2918281868,-0.8727753157,0.9256913445,-0.0110090684,0.6376229475,-0.1034187882,-0.5595166945,-0.232045114,-0.3837310133,0.038812521,-0.6348519914,0.240641005,0.8035946472,0.6460597428,-0.3193653726,0.0933401459,0.0678049002,0.4565948434,0.621017433,0.2059943752,-0.4309577816,-0.7411374022,0.8370375386,-0.307734115,0.8535454407,-0.2679275224,-0.2516320496,-0.7501218812,-0.7840666479,0.9394959862,0.8947977285,-0.6128968042,0.4823139227,0.3542539367,-0.8110911203,-0.4141346331,-0.7603383076,-0.2214102708,0.642638719,0.5934870769,0.0758373584,-0.8621406226,0.772404133,0.2245976319,-0.0181283313,-0.2641488527,-0.2778705507,-0.4729227224,0.604085038,0.6394613088,0.820090078,-0.6819915756,-0.0087761756,-0.2249685336,0.1313472486,-0.4604801269,-0.9941912806,0.487443126,-0.9336920799,-0.7282295451,0.3506464396,-0.0228674727,0.1416256232,0.6155623279,0.5139730534,0.6912326258,0.8816517207,0.1257670991,0.8106971061,0.3945813647,-0.8908170823,-0.594381024,-0.3461425816,-0.8630423791,0.3750711213,-0.161763928,0.0192480167,-0.2444609199,-0.8132121382,-0.9635326667,0.9144585561,-0.9886226126,-0.2540387734,-0.630278405,-0.3298185108,-0.8548220231,-0.4829952332,-0.9449822903,-0.7172899909,-0.6150754808,-0.6370049278,-0.4970954654,0.568854624,-0.5298646033,-0.3092410717,-0.9195254386,0.6006716217,-0.9998788906,-0.0806550292,0.406616707,0.4127009308,-0.2298675632,-0.5484110935,0.5325390277,-0.7094081567,0.6423431013,-0.5464798993,0.0901431111,0.7365750694,0.7704600152,-0.6859747835,-0.8843551442,-0.0861923271,-0.6318763108,0.8639084251,0.5839741202,-0.7702718806,-0.5536644037,-0.0810764661,-0.4730199057,0.5672216577,0.5462866132,-0.1976596457,-0.2359691341,0.4234480436,0.6861646107,0.8949766046,0.0891338741,-0.2511515955,0.7606338959,-0.378114755,-0.5127858143,0.5211224243,0.3943342366,0.7542580543,0.0853568314,0.9171777613,-0.8533504867,0.2469040272,-0.0730834753,0.0119787041,0.4258760889,-0.1905422861,-0.0210235027,0.13069584,0.1412595219,0.323905874,-0.0931099701,-1.0416585879,0.7625855733,-0.793162803,-0.2385647987,-0.5658121187,-0.2508827867,-0.659258017,0.9133604363,0.7229926645,0.0377876995,-0.494084372,0.8293099164,-0.7976236361,0.1617112122,1.0031853766,-0.4817349707,0.2806681747,-0.8853517979,0.7514002455,-0.506109518,0.7247708473,-0.3103240643,0.0266334838,-0.1629874413,0.2020435014,0.7801631259,0.8055706709,0.8583965061,-0.5341673436,-0.5782706295,-0.0103672495,-0.2120881115,-0.871906804,0.456451705,-0.3532711104,0.4293966495,-0.6565229994,-0.2652398033,-0.3737300685,-0.1020886844,0.7641075715,0.5306501677,-0.7612134371,0.6855437605,-0.9810150193,0.1599883138,0.2269166724,-0.3904794214,0.2143230968,-0.4310622595,-0.133177612,0.0767357445,0.6902562423,-0.1697868479,-0.9775880372,0.7537603571,0.5343620319,-0.8556766078,0.9189009403,0.1698256666,0.6537642416,-0.7379994373,-0.7097455104,-0.9442993175,-0.3397816337,-0.6969176377,-0.3352613657,-0.4673164582,-0.9070084198,0.8883048305,0.9555747939,-0.4219940339,0.1089284795,-0.8839440477,0.1297968585,0.7035663321,-0.5515498106,0.5392718843,-0.333970215,0.2651989324,-0.2876858701,0.6884225793,-0.3377237645,-0.0000478473,0.0675653403,-0.327275425,-0.7613018124,0.2704698937,0.668358659,0.6388549897,-0.6078759764,-0.3828850272,0.6709631445,-0.6474238993,-0.6421228689,-0.6348314411,0.15852637,0.3835622972,-0.5320820174,-0.0042141781,0.740064311,-0.7784010674,-0.5042917781,-0.4901114675,0.4290568812,0.8220574174,0.2095483358,-0.095068783,-0.8923395455,-0.2700151734,-0.69947429,0.6920311218,-0.0601666203,-0.3700984706,0.3592630499,-0.0710735874,-0.6580368069,0.5014457979,0.6680283569,0.3444785446,-0.5047638769,-0.7000229241,0.3834265704,-0.7031662636,-0.6950648747,0.3580579966,0.4904000264,-0.1786259308,0.6584502203,-0.5308700259,-0.3335641711,0.4662015387,-0.8580267895,0.8265790175,0.2085173209,0.7120417553,-0.1986985294,0.8878833561,0.0012276092,0.209343273,-0.545801282,-0.6793975964,0.5403015095,-0.1992041096,-0.2167492152,-0.2864322845,0.413408445,-0.0198561335,-0.7215427039,0.9254923372,0.6917032424,0.4907989245,0.8215206776,-0.6161999622,-0.4403463692,0.8651981023,0.0886272779,0.4810604798,0.5118745225,-0.2650651782,-0.4301807943,0.365546716,-0.0491389836,0.0024013055,-0.4404276631,-0.8559022221,0.2962699245,-0.3094193307,0.5122509074,0.2348272367,-0.1744366336,-0.0558221305,-0.1462146447,0.953906985,-0.0210839522,-0.7138265297,-0.3627079195,-0.7930997829,0.7698741011,-0.6766592913,-0.1172393965,-0.8198443699,0.7682640705,0.0069708618,0.2732499413,-0.4326209265,0.8229633678,-0.218226525,0.9648596989,0.9341646849,0.0555807434,-0.5817224099,-0.8637917004,-0.0878015726,-0.1472367586,-0.0186689802,-0.2086536626,-0.3466043059,0.5298646859,-0.2575102072,0.7169784727,-0.5691273065,0.3324605363,0.7690589945,-0.0354059418,0.6585219547,0.1293464519,-0.6480612858,-0.7227771306,-0.7416227539,0.2666729716,-0.397217164,-0.6942223063,-0.4176725358,0.2275429634,-0.8368046115,0.9077431337,-0.3919860744,-0.5227103632,0.7691868813,-0.3724686921,0.0872524569,0.5456210766,-0.5452329721,-0.2210420397,0.8021889457,-0.338367219,0.1060756546,0.8688996763,0.8192183728,0.3363795862,0.8266434442,0.7551571948,0.3691772902,-0.3622454288,-0.4604985148,-0.5945462244,0.6346330283,-0.5663608694,0.6683513393,0.481698672,0.7570179078,-0.1684618091,0.2623296529,-0.3896551821,-0.6208458371,0.8658718009,0.5405688246,0.0101641101,-0.2763454622,-0.5808422737,-0.9334032058,0.1717900283,-1.0000866143,-0.3753554193,0.5573197379,-0.2902297429,0.9999398267,0.7187917831,0.7180201136,0.5496902581,0.670829146,-0.1528531971,0.27923042,-0.6204833342,-0.2899696354,0.7965827585,-0.8113250994,-0.8522032343,0.6497703571,-0.7627803684,0.3094591358,-0.7899759377,-0.6272342895,-0.1065341715,-0.9512947606,-0.3894669633,-0.0055398367,-0.3778902351,0.6702602589,-0.5479197162,-0.716914314,-0.4426688383,0.0902868441,0.3867115266,0.3002428917,-0.1880628123,-0.7453560223,-0.9069504331,-0.563087554,0.6509611632,0.3743054507,-0.8822694643,0.2101282493,0.6025954562,0.5751781212,-0.67455229,-0.1286539266,0.2489810764,-0.021868298,-0.8211304906,-0.6980277653,0.0339566629,0.8331902206,0.5251436115,-0.2508929892,-0.8428582604,0.6234804119,0.5081673814,-0.2889925499,0.0124725602,-0.5847126362,-0.582305011,-0.6589605176,0.425937532,-0.3535547259,0.5970250646,-0.4370507968,-0.1117370127,-0.024095175,0.6372556529,0.3337243623,-0.8298731797,-0.2936507748,-0.0370679878,-0.6060779495,0.419193682,0.817683596,0.2133913684,-0.1582477317,0.9137746575,-0.5441533033,-0.2918387734,0.0454566815,-0.2401110889,-0.1228299706,-0.479679845,-0.2842083493,0.66359635,0.1960212847,0.8409274564,0.5579834496,0.4670504816,-0.4852114714,0.8682231348,-0.6856396904,0.0386616001,-0.7633306304,0.0858205694,0.5181276177,-0.13860229,-0.8583751904,-0.1125202752,0.4855187959,-0.5048961462,0.1333802269,0.9345857366,-0.6580095794,-0.4907327292,-0.4709464237,-0.1247823594,-0.1298987608,-0.3048647747,0.5857570431,-0.6212750807,0.0559681921,-0.7120244718,-0.3482577478,-0.323900337,-0.0757282013,1.0290010823,0.6410762339,-0.2872547791,-0.874299648,-0.9274009658,-0.2749375125,0.9104875276,0.4760911297,0.8650133751,-0.6351984205,0.7653230336,0.8785705137,0.125315941,-0.253754584,-0.9124259429,0.7562325788,0.0224145596,0.7382522873,0.3722806017,0.3931620381,-0.0208973505,0.3715127324,-0.9401680594,0.3730873204,-0.6314030888,-0.3348866376,-0.8200328238,0.1445861634,0.8455269458,-0.4262221041,0.0967074858,0.3066559814,-0.981445776,-0.7129917947,0.5459373539,-0.0116440564,0.2481620519,-0.4047732549,-0.892917125,0.4536996472,0.2758832879,0.4314862783,-0.4563220703,-0.7301095229,-0.835481252,0.5393293526,-0.4940802742,-0.284626268,1.0244636645,0.0371613932,-0.1168920882,-0.7485154897,-0.1810707613,0.4235628708,-0.040751186,-0.6825804221,0.0942093219,-0.3278412961,0.3396747811,-0.7765835166,0.9228717853,0.9706628083,0.6556605442,0.3190290315,0.4296996126,-0.7645879118,0.1168486195,0.5874682517,0.4105339348,-0.6246283772,-0.0747155078,0.8894546415,0.1725805739,-0.3109182826,0.4881895488,-0.6278889584,-0.7590700152,0.4607687928,0.239410138,-0.5534219436,0.6702034823,0.5109660268,0.4697059905,-0.8551186943,0.9254030865,0.918473428,0.209683954,0.1605605867,0.8331188877,-0.8450239556,-0.9256623174,0.8160462211,-0.4375156129,0.2112632494,0.0518271446,0.2619034609,-0.839332941,0.1147675629,-0.8007262451,0.6261552988,0.8379270891,-0.3265255729,0.6733050571,-0.3284120523,0.4824238939,0.9346471953,-0.839075723,0.5330290355,0.3124786841,0.3828486829,0.0807018931,0.4561741462,0.4958732697,-0.595755228,0.8863701248,-0.8453279643,0.1128907109,0.1587551022,-0.3380600952,0.7613867443,0.3839255255,0.0350266615,-0.5188576611,0.2138327893,0.9913946715,0.1865055733,-0.8521009473,-0.5276366931,-0.622189872,-0.6251971056,-0.6298179857,0.2958546651,-0.5684175172,-0.0307629989,0.2667896326,0.6027422673,0.471548406,-0.9583239688,-0.7426868301,0.0641161786,0.2331017349
   0.0254783407,0.5867605666,0.3307295337,-0.0445008753,-0.1027246195,0.5844004507,-0.1061498258,1.0116240712,0.5227945997,-0.8361313219,-0.1985569956,-0.816967377,0.4727610319,-0.7928655559,-0.2053348427,-0.2134467309,-0.6415875673,-0.5497013705,-0.720611212,0.4872518286,0.2010136281,-0.0756477109,-0.3591786743,-0.8321586062,0.7379246608,0.4409219478,0.4366298282,0.0450656049,0.8735953181,0.7942297242,0.2231792711,0.9127045843,0.2489696447,0.6113726152,0.5933947086,0.7082729782,0.9035689975,-0.0941439913,-0.6937387282,-0.6919579386,-0.0272463956,0.2636061021,-0.70625022,0.2579951082,0.9870285319,-0.6678014919,0.4234702437,0.0848657643,0.4655576314,-0.1850678735,-0.5265592881,0.3581513255,0.0901066833,0.3820660188,-0.1460141896,0.1023839346,0.4491778037,0.5280818143,-0.7490926515,-0.765139248,0.280751621,-0.8665086997,0.3283017298,-0.5469871251,-0.8207775879,-1.0027638529,0.3191977341,0.984334507,0.1454766482,0.6738561591,0.3992877338,-0.2697906785,0.3952988614,0.1566795415,0.1060140611,-0.0948264921,0.4293497719,0.4315492539,0.9449167803,-0.9559461627,-0.2062738994,-0.2291083248,-0.2606042746,0.9113584112,0.6444752157,0.6139533111,0.1417495292,-0.2122353045,0.2767590048,0.2162453462,-0.8342236495,-0.0428705045,0.6631703591,0.5376053631,-0.2658031732,0.8189575902,-0.6168184536,-0.0835304951,0.6790251056,0.0098690343,0.3284534364,-0.0410739044,0.8286027561,0.6804528425,-0.9439754112,-0.2594958677,0.9955979347,-0.5564809462,0.4834331882,0.2209782783,0.2374375581,0.9233103725,0.3197846827,0.6121940653,-0.3085246534,0.805749066,-0.8422408355,-0.010189573,0.0603581521,-0.7259766997,-0.1755693082,-0.292052883,-0.2216407928,0.6287867159,1.0098944069,0.657260438,-0.0998406832,-0.3015491261,-0.3488450532,0.4401399516,0.4474841151,0.8344138202,0.3492718835,-0.7797395964,0.5064755456,-0.5992394302,0.6454037012,-0.2838077611,0.4331390703,-0.4362791349,0.0620159366,0.9544854519,-0.8249688662,0.6934014824,-0.5460261925,-0.1018068254,-0.7566708636,0.6409428648,-0.9231040593,-0.7650940639,0.2863354296,0.3554112526,-0.0336480569,-0.4924128207,-0.5029205103,0.3089867448,0.7756684895,0.2985845264,0.06524532,-0.8602058324,-0.3843069754,0.9541710048,-0.4288260673,0.0016147422,0.7820757811,-0.2449366377,0.5753833359,0.8537347435,0.5115077744,0.6609163044,-0.7119979137,0.8100806201,0.4756558535,-0.3097572585,0.0144876114,-0.1660334229,-0.1427117498,-0.1793556291,1.0552346037,0.3210720124,-0.3786275882,-0.6977165869,-0.1021307181,-0.2759258767,0.0103040683,0.0867818103,0.05088581,-0.5482227676,-0.7370909128,0.0477848909,-0.380504256,0.2221632544,0.6356338088,-0.617221633,0.9593874868,0.4493167099,0.4659330046,-0.4693978028,0.4916487585,-0.3490143162,-0.6607273571,-0.6407547041,0.89372188,0.4808613189,0.3144443113,-0.2328859482,-0.2513009868,-0.1026559527,0.0312282764,-0.9681532818,-0.7600420245,0.1973178495,-0.3408935468,-0.7409205113,0.5078700765,-0.8210843238,-0.0026791243,-0.6134932902,-0.5122237901,0.3989531148,0.4383037082,-0.4686699407,-0.9160532206,-0.6116870596,-0.2505372104,0.0582509694,0.0118112228,-0.4396931665,-0.3175272379,-0.6787981583,0.3214425593,0.6340616933,0.3129503074,0.0407954606,-0.1448222882,-0.6853427875,0.5606348826,0.2596943595,-0.3470000552,-0.9688997855,0.0006888549,-0.1626637807,0.2839486666,1.0104693366,0.579339454,-0.792244146,0.3997202336,0.6832004461,-0.4346505458,0.6143473981,0.3710952901,0.3513157663,0.2726084559,0.8309453281,-0.5920081254,0.5731007833,-0.5385682849,0.6218838845,-0.2003197734,-0.7853179181,-0.9166974138,-0.4269754931,-0.3562758548,0.3305335797,-0.485829449,-0.0292989301,-0.6358137186,-0.1549136604,-0.7373621514,-0.3611741793,-0.7474743051,0.9292519789,0.8127206579,-0.7079319415,-0.6751743364,-0.0210804586,0.4890554438,-0.6385409552,0.1852369024,-0.4524345543,0.9544153607,-0.1688516474,0.4349093626,-0.5505435203,0.2719372085,-0.7660182654,0.1071024963,-0.5765949356,-0.4853693588,0.4575825958,0.0571509136,0.4526925213,-0.3430753375,-0.206031395,0.8639581995,0.3178201053,-0.3128487936,0.7133222059,-0.4776026219,0.8475243384,-0.809222789,-0.3029218883,0.5875427101,-0.0294943938,-0.3724143255,-0.892062025,-0.3117803293,-0.5504458394,0.6444227508,-0.1733101523,0.9474414526,0.269953887,-0.5028042952,1.0145268144,0.0626618197,-0.0217504526,-0.5517043182,-0.3308844156,0.4854246769,0.7928911634,0.1404726118,0.2144171795,-0.7243320521,0.287261366,-0.4227539681,0.6867200735,-0.2265874888,0.4572804307,0.484730263,0.0084501416,-0.4993795254,-0.6695896917,0.0315644838,-0.7085398944,-0.3215431574,-0.7609038279,-0.3112566644,-0.9343677804,-0.6440510705,-0.3815720698,-0.9333711582,0.0020788787,0.323844352,0.5510768274,0.8800941585,0.4306499889,-0.6538610231,-0.440885105,-0.8613518285,0.6938780914,-0.109345986,-0.5945851996,-0.367366199,-0.6519292975,0.816173467,-0.6829257039,-0.7593629972,-0.2712543649,0.9025632242,-0.4075461901,0.1282701516,0.3712014607,-0.2790291961,0.9188328079,0.0499700807,0.3691911068,0.2919350562,0.0049428292,-0.8410818597,-0.3579487234,0.1462332463,-0.2499329121,0.4093083055,0.4373633425,-0.2192222117,0.2844973036,0.6800630842,0.111978458,-0.6753744124,-0.854213212,-0.1395681844,0.5127753651,0.5572784734,-0.9643751573,0.6301922781,0.2777015955,0.0020417242,-0.4165591725,-0.9560345458,-0.5204154864,-0.4580984822,0.055441441,0.9129485144,-0.4220185508,-0.0315866479,-0.9253478686,-0.542740468,-0.5000063354,-0.3867392866,-0.0491215088,0.6296475639,0.256899554,0.0977630183,-0.397479229,0.1941102617,-0.242363781,-0.5696953942,0.5522926134,-0.067937802,-0.2395718315,0.4583022645,-0.3338006572,0.3758851635,0.3665548605,0.1706615106,0.6833215591,-0.905211794,0.0430930924,-0.068234404,0.7194575844,0.4532191482,-0.4039910953,-0.4980112987,0.7728133642,-0.949685424,0.6958611641,0.9674892409,0.0015359894,0.2627050574,0.7072759588,-0.9228460914,-0.0170719022,0.6654617708,0.6405579471,-0.31886876,-0.2439180458,0.8273175008,-0.5064473423,-0.6727142516,-0.5693062064,0.6383760566,0.9124171331,0.5149110026,0.2146190651,0.9595697607,-0.7958481779,0.8708489162,-0.5913368304,0.8132867637,0.8780835196,0.809926024,0.3729897944,-0.7658818733,-0.6743489622,0.6443534975,0.3953672663,-0.5577054828,-0.1306425362,-0.9367210208,0.5047393772,-0.2841229969,-0.2432340628,-0.7580376735,-0.203202734,0.3506134489,0.3608991485,0.8152689875,-0.3476556394,0.7853219948,0.0644833205,-0.0985966607,0.3770003521,0.2333050301,-0.1201856027,-0.9031141754,0.872764669,0.5232904777,0.4568311363,0.7949713476,-0.4200127881,-0.3925195763,-0.1700088013,0.8600233946,0.8127257808,-0.6737946842,0.6983593391,-0.6465633561,-0.1893496972,-0.9857279677,0.7595773551,-0.5469429315,-0.5130605682,-0.7108149181,0.0680005897,-0.5731020517,0.7363376675,-0.466817211,-0.9645521518,-0.7654248424,-0.2805343105,-0.051509455,-0.1697716668,-0.0793127935,0.2763064775,0.4245741876,-0.6568005883,0.2231888252,1.0040621062,-0.2053801624,0.9036415186,-0.5746733857,0.1413147673,0.0061977167,-0.1767604544,0.0206653125,0.529871734,0.2961084065,-0.4524210507,-0.2090635682,-0.0756968399,-0.7541766773,0.2475246613,0.2228832857,0.643737558,-0.1465857682,-0.5613146713,0.1963016613,0.725575859,-0.4624674689,-0.4532884177,0.4989340063,0.0323226779,-0.564356548,0.7449011374,-0.0935355261,-0.6818085568,0.0687916591,0.0430166339,-0.6614180187,-0.5259179598,-0.0213186187,-0.833109942,0.0547442177,0.40326248,-0.7166078166,-0.9387430163,-0.3900716159,-0.1399808932,0.0227610955,0.4423963652,-0.5936100803,0.0684376976,-0.6783969078,-0.3987867085,0.3623799636,-0.2386654498,0.9684191952,-0.0870137227,-0.7287349796,-0.0804966098,-0.0209125809,0.0937661688,-0.5011245974,0.3730815046,-0.3123150502,-0.2343112102,0.2641276431,0.1496665559,-0.171743848,-0.2496216984,-0.7016275025,-0.3959657592,-0.9262169649,0.6004218035,0.2859367568,0.5119634796,-0.7983665652,-0.3003365019,-0.8093945366,0.8519793434,0.5658326349,0.2762148757,0.2176882427,0.6825636225,-0.0573827485,0.6040144149,0.6577486187,0.3029609598,-0.2885803892,-0.4481088486,0.4723063268,0.0797098884,-0.4731797789,-0.6284558916,0.4366607453,-0.4507669734,-0.8781697348,0.0354190578,0.2455264151,-0.0297132108,-0.940651315,0.9887421128,-0.217734711,0.2937845291,-0.0923275215,-0.4689206064,-0.1210450214,-0.1632656994,-0.4394568999,0.3125916708,-0.1146506639,-0.3627823048,0.875159244,0.609177274,-0.215563421,0.930011569,-0.1856728328,0.0352881914,-0.2608605118,0.9089878437,-0.9500471375,-0.6109424671,-0.2959573389,0.7994200419,-0.3927436135,0.8826837878,-0.1243740729,1.0299645434,-0.5222899767,0.3157909257,-0.5327283906,-0.9023680028,0.7538181773,-0.7364985954,0.5519180113,0.3534323288,0.3632490778,0.1710674046,0.5469992874,1.0074826925,-0.2638889102,0.4129757272,0.4775672965,0.1961346137,0.6541957584,-0.5844722908,-0.7030499651,-0.3527582374,-0.3761457183,-0.4569235325,0.6769249461,0.6415864706,0.8821006445,-0.1361984185,-0.5927249034,-0.1137416313,-0.6489286247,-0.0131070338,-0.0931267559,0.9412092349,-0.3352635742,-0.2010784665,-0.6376903062,0.9411182082,0.1955966654,-0.8081386956,0.1133087819,-0.0474402483,0.678786707,0.9587088549,0.2494551793,0.6298997531,-0.796455598,0.6603587097,0.8486311071,-0.0602057286,0.0616476949,-0.1259898143,-0.3994040841,0.3589940596,-0.3255748918,0.2594442038,0.9709923597,-0.3214027876,-0.3721857832,-0.940686736,0.4522200903,-0.2247904806,-0.4082598808,-0.7633108356,0.5964726227,-0.1299646684,0.1675650665,0.4833988469,-0.6952829096,-0.4272378971,-0.8413302127,-0.1353691583,0.3216220983,-0.4056243046,-0.3721544303,-0.8425121951,-0.1600617132,-0.0675385088,-0.5364352273,-0.7317131835,-0.1592902987,-0.736239778,-0.3199218814,-0.3596373374,-0.0996621359,0.8850205125,0.4985312679,0.9744745896,-0.0959799821,-0.9163259805,0.3310395392,-0.5105487312,-0.929708978,0.8049982455,0.5010568957,0.2343879217,0.2408501181,-0.2866762513,-0.5533297881,0.3207719111,-0.538149737,-0.484280502,0.7217267733,-0.105825165,-0.5890410017,-0.6804671037,0.8246802302,0.0741968843,-0.2720241736,0.5751344005,-0.039175885,0.5472739203,0.6956850568,-0.9337384864,-0.0350568407,0.2572469539,-0.0794408626,-0.2746464062,0.1536230041,0.8619609362,0.0355192323,1.025070093,-0.1381780854,0.015753492,-0.1749886117,0.0626042754,0.795382889,-0.6027875406,-0.9188614554,-0.5857178572,-0.4686988256,0.6423665244,0.3186933234,-0.8904753021,-0.1888045066,0.1795239856,0.3979423577,0.1020407788,-0.2013213262,-0.8880254447,0.469587093,0.2194132118,0.8319083432,0.9740737724,-0.2797715824,-0.0838302811,0.3539092019,0.5385672792,0.321695866,-0.8970972536,0.4978636047,1.0464904454,0.7872945767,0.2224129386,0.2035667523,0.6369620091,0.2737730421,0.6130242084,-0.3680855919,0.7095494853,0.7720400669,0.6709775159,0.0074481715,-0.7547720476,0.852603415,0.4934689116,0.7252554025,0.4117972777,0.24729655,-0.3745133203,-0.66353495,0.8777854294,-0.1426674133,0.7209430076,0.9617907538,0.9165891005,-0.1184998168,0.4344930171,-0.9682501203,-0.6548088379,0.5476795415,-0.5583105103,0.8788678448,-0.7812929246,0.0233249401,-0.9365242153,0.7756309615,-0.2198136576,0.7722118287,-0.3840191156,-0.8094073872,-0.5789031443,0.4060526847,-0.1070178056,0.7020263118,0.1682977026,0.3489042733,-0.1862990459,-0.1233547103,-0.1583928213,-0.9230273845,-0.2674355981,0.1230102789,0.6813932894,0.2183386944,-0.7816336671,-0.6650078271,0.3333248251,-0.542735857,0.2867570913,-0.3420548585,0.7894209668,0.7133321026,-0.2620561738,1.0308985439,0.7238220882,-0.0680535322,0.0373710296,-0.2829568806,0.1233127526,-0.0868295665,0.9445871547,-0.3818107599,0.612824311,-0.2051775498,0.6355785296,0.9155584986,0.5167523901,0.9650479437,0.1055831555,-0.1786106979,0.245298932,-0.7625412511,0.9533903183,0.9009292568,-0.5520668343,0.5330350375,0.2678000519,-0.4722174188,0.6784338029,-0.0362199004,0.491518115,-0.7090635576,0.3291628961,-0.073932631,0.0263705266,-0.5802797388,-0.7198865653,0.7983874118,0.2343939619,-0.4940839334,-0.6731776432,0.8475268679,-0.853431138,-0.0528329913,-0.6367018201,-0.1999247699,-0.0511325977,-0.5905128239,-0.5272988509,-0.7124268991,0.3311708316,-0.093074927,-0.1080793532,0.0560055531,-0.7275996762,-0.2961062153,0.5433712364,0.3608973084,-0.6814000068,0.8967699042,0.8352963654,0.4290760345,-0.1249554217,0.7419264382,-0.4070024908,-0.4601784667,1.03241974,-0.908263954,0.6279339852,0.5338669469,0.580896688,0.917621512,0.7715657271,0.0281130583,0.3820979323,1.0356808824,0.1229999784,0.532863183,0.9826913525,-0.5434508269,0.6436515398,-0.726067167,-0.0621321014,0.758608276,-0.8110984979,-0.1328380932,0.6161777015,-0.6281903105,0.941638955,0.1638507179,0.0167766768,0.3815022602,-0.9017144172,-0.153637988,-0.3684691494,0.4840582327,0.323222732,0.8025839849,0.8108698508,0.3444363255,-0.8559171539,0.4057078106,-0.9064402611,-0.1599879214,-0.9176915316,-0.2462585261,0.765328577,0.6645357827,-0.8667730975,-0.9088871167,0.5512028224,0.8398914489,-0.187084181,-0.0964072734,-0.4135509864,0.727291046,0.2637515157,-0.691944051,0.1136931556,0.9384548678,-0.4776669738,-0.7321513145,0.6093218075,-0.6496027893,-0.6512560535,0.8190541859,0.3347029378,0.7514690611,0.1938994081,-0.2136963405,-0.6733420435,-0.7706487289,0.888804304,-0.6840020437,-0.1426867013,1.0069841043,0.1991205048,-0.3151223022,0.4443397499,-0.835193788,0.535537076,0.2895594814,0.6719886698,0.7145143428,-0.3538804854,-0.5250072402,0.5735722042,-0.6816663348,-0.7702993994,0.5190364338,0.5552380015,-0.8455372371,-0.537414012,-0.2547313691,0.6183813504,-0.194201328,0.9535706939,-0.5095284326,0.8446070469,0.5903732681,1.0187282807,-0.7192067737,0.2806165314,0.6109926066,0.3039692336,0.4937915186,-0.0755678969,0.552556486,-0.7835584713,0.3225096212,-0.9490082779,0.8103046274,0.573899896,0.225586878,-0.3405412711,-0.653928239,-0.5641252756,-0.0278491045,0.6784704011,0.7781500866,0.7553205751,-0.6416707355,0.387454645,-0.8798245142,0.6570892077,0.0170802112,-0.3964417471,-0.2297908794,0.883992693,-0.3855041884,0.4033604966,0.5277450734,0.6437451811,0.9270021662,0.7812101178,-0.0408890299,-0.7877022106,0.9546453084,-0.6160174317,0.0873435847,0.5534431503,0.5884009613,0.2000564362,0.8933810075,0.3948525616,0.462131289,-0.9196586394,0.1952919702,-0.3605888035,0.8031148255,0.362097539,-0.6992978845,-0.6988677381,-0.6992647607,0.8456512424,0.5303943265,0.59859798,-0.2637339192,0.7274430872,0.3457919209,-0.622442963,-0.6510151152,-0.5991116358,0.9939729523,-0.2256985572,0.3670403733,0.4899357098,-0.8809072575,-0.7820191574,0.6890304309,0.3513689029,-0.8996809678,-0.6511700235,0.2463779584,0.9338227428,0.0612346752,-0.6073699815,0.9026805246,0.8733423725,-0.7404743837,0.0083414154,-0.5415901095,-0.3159738501,-0.4914309721,-0.3503987274,-0.544578691,-0.1494672579,0.3662642754,-0.7538268142,-0.034894976,-0.7230237975,-0.9120582748,0.8036817097,-0.809655768,-0.951332062,-0.211863803,-0.5093113995,-0.3470487525,-0.1522806187,-0.1500737894,0.8533911108,0.9685741834,-0.5342583286,0.3963783388,0.3648859364,-0.8731722482,0.3924607761,0.5778741261,0.9287954671,0.7738069922,-0.5598871045,0.1351351214,-0.5136508692,-0.6068899647,-0.4399378744,-0.4392690935,0.9718571723,0.1822416528,0.9723920888,-0.3553085181,0.0988332855,-0.3882229594,-0.2939165083,-0.1704356595,-0.1701263194,-0.3345874317,0.483987344,-0.2402439593,-0.3298710015,-0.7705503546,0.6397466484,-0.7319561559,-0.8566505923,0.3636592506,0.1811743192,0.3233707396,0.901078551,-0.9058578834,-0.528187252,-0.0888471341,0.1559613719,-0.3557142052,-0.0936251254,-0.4801539654,-0.1072625278,0.5462946452,0.08701925,0.4947636277,0.0958853567,0.3124067753,0.2263963095,0.4320992838,1.0321087193,-0.3381354579,-0.2966390937,0.3049146373,-0.5640655445,-0.2019441593,-0.4973150867,0.3734963314,-0.3465396502,-0.0857119344,0.4798670575,0.8670886016,0.690589789,-0.6526121585,-0.4970564054,1.0456467739,-0.0379181247,-0.8039837767,0.9354370529,0.2951767159,0.7010480404,0.1372274209,-0.1707153621,0.1148017634,0.141459842,0.9942783618,-0.9135025467,0.7228559271,-0.2270956592,-0.30264488,0.1409343748,0.1515561008,0.5344351194,0.8173412961,-0.8042716882,-0.1420262416,-0.0983189515,-0.6638232249,-0.2005402677,0.9540831309,-0.6462073129,0.1890323027,0.6399342957,-0.5809005013,0.871398374,0.6038344787,-0.8274661656,-0.2486999707,-0.7234644182,0.4908571143,0.1168578892,-0.0883099559,0.1484367537,0.6578484461,0.1507399188,0.1072242604,-0.3048768448,0.0735802699,-0.2472648112,-0.4920845099,-0.7579978431,0.4405749453,0.1845753975,-0.4488444392,0.658562031,-0.8716532957,-0.8353704687,0.4296564182,-0.4866752817,-0.6721225293,0.1429955064,0.6534636299,0.7761946129,0.3497156579,-0.5054235997,-0.3031049268,-0.5367793438,-0.3861783269,-0.7310367465,0.3882423071,-0.5820540735,-0.4622317337,0.6557068332,-0.5015929842,0.2372927544,-0.8652044904,-0.817158563,0.6788020034,0.5753794278,1.0136324419,0.1332511055,0.1735322399,0.5250931008,-0.2963976544,1.0534389543,0.4580171054,0.5958872674,-0.7164205693,-0.7656142549,-0.0696892498,0.8743225827,-0.9932448416,0.1339431727,-0.2130572507,0.2949293022,-0.4305276865,-0.94467593,0.4149095936,-0.4752727843,0.5603324918,0.1739179579,-0.2469740345,0.097700182,0.4302246736,-0.6093417228,-0.2332332085,-0.1910062021,0.4849556139,0.7941217889,-0.7097833986,-0.109148813,-0.607820954,-0.5084917188,-0.220224866,0.015467822,-0.5946837793,-0.2859985528,-0.2861279929,-0.0749272219,-0.003650881,-0.140502982,0.976766927,0.660549216,-0.1597158425,-0.7737301111,0.9255344534,0.156967999,0.5522804529,-0.6089889857,0.0359565173,-0.3776888037,0.8690767528,0.2791738763,0.6222920743,-0.3332633486,-0.362352784,0.2183525463,0.4870698545,-0.5432352819,-0.0542098274,0.6279903865,-0.1389925415,-0.2687480324,0.2946987613,0.8470955752,-0.5410823979,0.0977790594,-0.8957741058,0.9425999042,0.2028194111,-0.8389421681,-0.2660789567,-0.6536827217,0.2808287369,0.4771241677,0.8978222369,0.2878628627,-0.4626978011,0.001158956,0.8365516549,-0.2852533125,0.0173423621,-0.4871730485,-0.8281191369,-0.2039541926,0.0901822635,-0.0693005338,-0.7535568847,0.6493176124,0.8140575594,0.5191537906,-0.3333077161,-0.3752562275,-0.434430577,0.6797527488,-0.7107722962,0.1200733454,0.49125512,0.0556221823,0.6274952629,-0.7446814631,-0.3051646747,-0.1874091671,0.9307006325,-0.9797753666,-0.912381003,-0.7797480749,-0.1770752203,0.5307780699,-0.6793618758,-0.8834362325,0.8425134202,0.3115350525,0.0449334512,0.9459362184,-0.0051775396,0.0518560418,0.6759334664,-0.850868136,-0.6143562991,-0.4863828464,0.4529297062,0.0136983839,-0.704035814,-0.7571712788,-0.4194850629,-0.291087645,0.611610449,-0.6615235428,0.4688023178,0.2149155599,0.34983653,-0.611290698,0.9851371005,0.0778092265,-0.7603158911,-0.2062716508,-0.3756568185,-0.0849808047,0.7247555241,-0.5773010561,-0.1862383624,0.7440954325,0.3406844449,0.6954431377,-0.5894751442,-0.3962670617,-0.8952320188,-0.2399325008,0.6534618776,0.3374850769,-0.5932455039,0.5155024231,-0.1218600296,0.7896491662,-0.7727267419,-0.4349596766,1.0555817291,-0.8204756132,0.2404186161,-0.2227420661,-0.2259827704,-0.3091307659,-0.0468898721,-0.7109579451,-0.7067287234,-0.104950947,0.874243407,1.0048402403,0.3843788882,0.2170784836,0.8221252538,-0.8689976015,0.892753099,0.2960836086,0.6922507936,-0.4434936631,-0.8446761266,-0.5863154554,0.6069163022,-0.8868150088,0.773413028,-0.9215842891,-0.3946156359,0.9355438946,-0.7823482013,0.9366374731,0.8727534251,-0.8465679142,-0.041536621,-0.7736427181,0.9455146801,-0.718429643,-0.6891454784,0.5311125291,-0.5221513963,-0.1592462259,0.940156527,0.9268404846,0.248534751,0.4582757732,0.0005295036,-0.0295314774,-0.8147700574,0.3111129118,-0.4206922175,0.7846110585,-0.8278848493,-0.9029994811,-0.6027882145,0.4122899965,0.8714973637,0.4182400305,-0.812615838,0.9033607216,-0.4289413898,0.2932141182,0.9883178531,0.7262309249,-0.8650963317,0.6714556903,-0.1842854527,-0.2478613036,0.6558640272,-0.0486175583,0.3509481114,1.0179705654,-0.7840714227,0.3181627041,-0.0662331679,0.770384563,-0.1434255982,-0.2311626142,-0.3459013248,0.9863695454,0.149842682,-0.3105106725,-0.1929509182,0.8214361556,-0.9856598846,0.069097643,-0.3424205331,-0.0564272657,0.9898648331,0.9715828565,-0.3581482454,0.6036450215,0.2649537425,-0.1672760619,-0.7781511702,-0.5433343638,-0.9165317762,0.1622014848,0.9111581952,-0.3449847707,-0.5157648862,0.7694104148,-0.9205380201,0.0605302115,0.5273713665,-0.7457941913,-0.464206266,0.0771854973,0.63834621,-0.1459615988,0.3453038246,-0.1931333111,0.5461102509,0.2614842923,0.547855028,0.2057895434,0.4777225706,-0.997517024,-0.8437305542,0.9675040231,0.7531231135,0.052155265,0.3489735127,-0.8958119653,0.3992082426,0.758172522,0.3381975825,0.0180888904,-0.4169683799,-0.7536329362,0.4349544065,0.5765352291,0.7618547494,0.4286113142,0.1803821168,0.2816358159,0.5689534055,0.7429546341,-0.1145688018,0.4590248101,0.1736105731,0.7146009902,-0.1009982636,-0.8858928294,-0.5412448965,0.8432794609,0.4948863488,-0.1857931387,0.149232461,-0.4360116252,0.2792616713,-0.9111809146,-0.8374108747,0.4984151138,-0.7096826795,0.9205658217,0.6721777208,0.0621978371,0.4131157796,0.1985770515,0.4013765091,0.4150529659,0.1565939607,0.4050845779,-0.414275007,-0.3460520935,0.2466604716,-0.9151464668,-0.6828251579,0.2474099046,0.8446086155,0.1476301714,-0.0536754381,0.3939471349,0.6267152829,0.6907637068,-0.7075907445,-0.8898601531,0.3639126812,0.7483741254,-0.5267468434,-0.8338196095,1.0175045323,0.8517568987,0.1661528997,-0.6257911592,-0.8503730131,-0.0787265739,-0.2434712192,0.8322776897,0.4072487181,0.3485282041,-0.8137333678,0.1856215839,-0.4200609669,0.6156789896,-0.3846753465,0.416991621,-0.4394654968,-0.2738669134,-0.3551712136,-0.9133794929,-0.6831831434,-0.1265954609,-0.0789308543,-0.9069549931,-0.3115985404,-0.2006718276,-0.3831846953,0.0868599272,0.0420481964,-0.6955195732,0.9127403403,0.7885736583,-0.1116400701,-0.8908647477,-0.0679132906,-0.2785383599,0.0381859982,0.773773703,-0.325770315,-0.1631566296,-0.5216168268,0.764318807,0.3770491392,-0.066193755,0.9275569444,0.7969344551,0.2923941389,0.4144581374,-0.3805254457,0.8184022047,0.2850821461,0.7459800142,0.9470206166,-0.9036255311,0.5257931379,0.5319787274,1.0141591996,0.9843437703,0.836722565,0.4364323415,0.5638485378,-0.3288809519,0.7322200216,-0.7720140112,0.6406802411,-0.3520834031,0.8350705171,0.9615892454,0.8018340933,-0.7651511388,0.2451495006,-0.9275116391,0.3636537731,-0.4667348041,0.3153067707,-0.2412607032,0.1355082933,0.3800140734,-0.7950476858,-0.3525275447,0.7435897648,0.0572002669,-0.8638359252,0.4703155382,-0.3917375394,-0.7731313116,0.1692839131,0.1884640337,-0.8040857906,-0.0369025998,-0.2329776355,-0.5687761549,0.7437161199,0.4796265547,-0.1283398809,0.1513125382,-0.0230300444,-0.018032456,-0.8011482218,0.324473214,-0.9417482278,0.6149209617,0.8367852188,-0.6344882324,0.9133178759,0.8260560257,0.8914980016,-0.3398858082,0.7715747259,-0.634075708,0.9872141746,0.3437335332,-0.5700421165,0.6593474756,-0.3215507549,0.1967434435,-0.6503361068,-0.6384701231,-0.5084068743,0.4730945018,-0.2003865837,0.8235465213,-0.2426565076,-0.7120209389,-0.3367422194,-0.2374785534,-0.6042237891,0.443700562,0.0478306599,0.7212035619,0.4901610055,0.1776289396,-0.4632457423,-0.8334246031,-0.831994008,-0.2000606592,-0.2102677584,0.8740429074,-0.7322747327,-0.8997816214,0.6707119577,-0.9665983958,0.6192837214,-0.2653366996,0.3406082082,0.7890049068,0.2112359148,-0.8999436767,-0.9397824181,0.1652693485,0.6250188307,0.7904346581,-0.5515258958,0.1910238863,0.7697857121,0.5962808218,0.4493588582,0.2576492765,-0.9624089093,-0.5726759191,-0.5818940068,-0.2350194001,-0.9766767987,0.4273497036,-0.8942584871,-0.2933647341,-0.6390672551,-0.8796409247,0.9427218209,0.2155686072,-0.3391435836,-0.1677903895,-0.4474517483,0.4483232614,-0.1276874257,0.0621134148,0.0562821141,0.7699973045,-0.9765770562,0.5875066509,0.2447566207,0.5288526033,-0.7138791502,0.230771449,0.2744631699,0.3126284219,0.3893116263,-0.4570149039,-0.1099460872,-0.5383911433,-0.0339684724,0.6709829274,0.8205360526,0.4579882622,-0.0212597878,-0.1555327009,-0.5727984113,0.2424705006,0.2174570923,-0.5843629277,0.3275711671,-0.0912151402,-0.4072686198,0.6261915965,-0.882038453,0.275735429,0.590106498,0.8711018485,0.0714306868,0.9294975202,-0.2586159677,0.4125097291,-0.9704892879,0.075073194,-0.8698704315,-0.7725738523,-0.3929479602,-0.529977748,-0.596571596,0.2041092778,0.9887366723,-0.4271660131,-0.8108007702,-0.6191918975,0.0008101394,-0.9930713789,-0.8848110293,-0.489228853,0.3780044448,0.1963329424,0.0965619723,0.5996535836,-0.1174548683,0.0390758628,-0.1190432481,0.0544113257,-0.2675093708,0.6342224613,-0.7532365938,-0.4487867587,-0.3441944777,-0.2364021322,0.085914159,-0.6215771548,-0.3041570123,0.9724310005,-0.9454384636,0.3572211782,-0.8698168693,-0.6200868664,-0.484924594,0.1164080207,0.1473781718,-0.9101753035,-0.7960318829,-0.9781050134,0.4608991424,-0.2742248675,-0.2541726759,-0.4705827003,-0.459765088,0.1882491508,-0.5589397682,-0.0423922518,-1.0090850686,-0.0160082729,0.0606217634,0.1573521853,-0.8994573109,-0.4908779551,-0.8978334071,-1.0020926321,-0.7699362099,-0.047943892,0.3788617755,0.8815203166,-0.2346099278,-0.0723601326,0.8748014797,-0.5361265244,0.3654279059,-0.6269186283,0.4738607318,0.2613949857,0.8940827941,-0.3569506818,-0.1131155658,0.1853474767,-0.1446492757,0.2464484262,0.5285715866,-0.1504193531,-0.1670025557,0.490531191,0.8138682547,0.9653933466,0.9813953622,0.0053091956,-0.378121774,0.0067802358,0.6872217798,0.7674221157,0.3374777053,-0.586465642,0.1292178077,0.3492950991,0.4200851916,0.4980366374,0.6885540223,-0.1820758146,-0.8072632473,0.7038383183,0.7119168916,-0.8672291729,0.8074706774,0.8856903954,0.243338843,-0.0956218129,0.3148838141,-0.6661807267,0.0945410243,-0.3287213971,-0.2554265655,-0.7930350619,-0.2797943253,0.5401843931,-0.9159611041,0.0143443412,-0.5188816612,-0.093287962,-0.2874745003,-0.1864673576,0.1031439544,-0.652691682,-0.8749754175,-0.7445708478,-0.5226954149,-0.5135900271,-0.8542275419,-0.8799842402,-0.387647673,0.0332331829,0.3860000523,-0.5176528257,0.8395327632,0.1639162462,-0.137222807,0.5086955531,0.8271097567,0.8968408893,-0.5330376689,0.700641139,-0.426355561,0.1962410643,-0.2772165468,0.6536133224,0.4518201045,-0.616912116,0.6108196449,-0.3929273387,-0.0271933073,0.4068496963,-0.7318557381,-0.5520338103,0.0648939795,-0.5895215863,-0.0790510218,0.1592352837,0.1361144522,0.1484067997,0.5021312096,0.4902761345,-0.5925463849,0.2703159379,-0.5743999842,-0.6125282804,-0.283106175,0.7543816256,-0.6582358165,-0.582358832,-0.1372284593,-0.1971109783,-0.4897158976,0.3282857267,0.3739209283,0.0015847541,-0.0200108516,0.0222616764,0.5618300789,-0.622463494,0.7919107493,-0.5640023041,0.8246498731,0.868731779,0.2910175172,-0.8136377645,0.9111959892,0.2465490006,0.9610810307,0.6584883552,0.9381967589,-0.8539916669,0.7286156462,-0.6753295821,0.6817817411,-0.0234104002,0.2025050987,-0.4639368131,-0.0204958496,0.9014600227,-0.7679695512,-0.6783281202,-0.9436898019,-0.6670428095,0.0649548904,0.3653824773,0.8164263563,-0.1448621072,-0.6099373377,-0.5819099249,0.803483393,0.4872334306,-0.3878122395,0.7611855172,-0.6659258006,-0.4847042145,-0.7355107526,-0.314095031,0.239170385,0.9737223474,-0.8846274684,0.2906495983,0.6031362751,0.8826727852,-0.7350690072,0.8094879711,0.1040455154,0.9764036559,-0.1087862921,-0.2049705711,0.3360687234,-0.41891828,0.0807580574,0.3106602568,-0.3722617156,-0.4575640593,-0.2044568235,0.8511774878,0.3601179516,-0.2313134385,-0.5340772184,0.3190132184,-0.2188384762,-0.2524781568,0.2173333933,-0.2243737459,0.9019399759,0.1619231926,-0.0172780462,0.900640843,0.3571775844,-0.3836460701,-0.198542603,-0.6304453003,0.8309266942,-0.895230152,-0.6993680414,0.456665872,0.6225074652,-0.0974315301,-0.0627823485,0.3985347849
