encog,BasicNetwork,java,3.4.0,1,63656376128880
[BASIC]
[BASIC:PARAMS]
[BASIC:NETWORK]
beginTraining=0
connectionLimit=0
contextTargetOffset=0,0,0
contextTargetSize=0,0,0
endTraining=2
hasContext=f
inputCount=300
layerCounts=2,11,301
layerFeedCounts=2,10,300
layerContextCount=0,0,0
layerIndex=0,2,13
output=0,0,0,0,0,0,0,0,0,0,0,0,1,0,0,0,0,0,0,0,0,0,0,0,0,0,0,0,0,0,0,0,0,0,0,0,0,0,0,0,0,0,0,0,0,0,0,0,0,0,0,0,0,0,0,0,0,0,0,0,0,0,0,0,0,0,0,0,0,0,0,0,0,0,0,0,0,0,0,0,0,0,0,0,0,0,0,0,0,0,0,0,0,0,0,0,0,0,0,0,0,0,0,0,0,0,0,0,0,0,0,0,0,0,0,0,0,0,0,0,0,0,0,0,0,0,0,0,0,0,0,0,0,0,0,0,0,0,0,0,0,0,0,0,0,0,0,0,0,0,0,0,0,0,0,0,0,0,0,0,0,0,0,0,0,0,0,0,0,0,0,0,0,0,0,0,0,0,0,0,0,0,0,0,0,0,0,0,0,0,0,0,0,0,0,0,0,0,0,0,0,0,0,0,0,0,0,0,0,0,0,0,0,0,0,0,0,0,0,0,0,0,0,0,0,0,0,0,0,0,0,0,0,0,0,0,0,0,0,0,0,0,0,0,0,0,0,0,0,0,0,0,0,0,0,0,0,0,0,0,0,0,0,0,0,0,0,0,0,0,0,0,0,0,0,0,0,0,0,0,0,0,0,0,0,0,0,0,0,0,0,0,0,0,0,0,0,0,0,0,0,0,0,0,0,0,0,0,0,0,0,0,0,1
outputCount=2
weightIndex=0,22,3032
weights=##0
##double#3032
   0.950031036,-2.8752720059,1.7342758069,1.6233580349,-1.4588456707,0.8263801322,-2.378309473,3.39907475,1.1710580194,3.6782960208,0.3556323119,-0.9469987864,2.4712076748,-1.8402578961,-1.7082622277,1.3912253148,-0.8902873845,2.8197234662,-3.5673613692,-1.0080934455,-3.6258223407,-0.2670719352,0.9818313855,0.3769059665,-0.2615746379,0.2901229862,0.7720568068,-0.3453436686,0.1267532662,1.0524130444,0.8442902745,-0.3850113691,-0.7439572956,-0.3746838741,0.0902357565,0.6375343606,0.0470048697,0.4184608682,0.7255596745,1.3132770915,0.1253781156,0.0592120517,0.7445870295,0.2185652272,0.2566026647,1.1461569683,-0.3946225907,0.9542924295,-0.2961680941,0.5206091158,-0.3668906623,-0.1735854741,0.5765693725,0.2461596113,1.3227619703,1.0551499691,0.1471181029,0.9465627719,0.2268623383,-0.2212048525,1.1235708948,1.102369296,-0.8365762684,0.4188166336,-0.339732028,0.7602831794,-0.042607757,1.032051484,0.1103147658,0.9769682057,0.2355423189,-0.3602822149,-0.0965283611,0.5854249311,-0.6365098605,0.1035750719,0.6505022982,-0.4231211608,0.0748608261,0.8144206292,0.3002392772,-0.3449382382,1.0401576293,0.3697467069,0.944794315,0.4646488722,-0.8697391669,0.3056144274,1.2240363737,0.9552105403,0.2706376204,-0.159739671,0.0017529548,0.5157494856,0.0701497953,-0.160629034,1.0279384983,-0.181913007,0.1908764093,0.3238898982,0.4558373451,-1.0540645421,0.1730852069,0.6895972055,-0.4247599713,0.5468266933,0.1801721338,-0.2799038652,0.1831580059,0.8242371761,-0.4471084164,-0.1755631927,1.310964273,-0.6885237466,1.2124318878,0.472797886,0.8097766921,0.4586152136,0.8627713892,0.9719726445,0.7413891265,1.0132717977,0.800920276,0.0082019512,-0.0113629901,0.3452025884,-0.3741086664,0.8658558787,0.572603464,0.2938333809,-0.3796081697,-0.5868629085,0.5827743859,0.8433105763,-0.2362338785,-0.228932687,0.8045459143,0.6286994643,0.094038251,0.6020305265,0.384704294,-0.4062048604,1.3020046154,0.3786992456,1.0540729175,0.0874286515,0.8212412823,-0.2445058337,0.9714053212,0.8545510912,1.3350580581,-0.1484341798,-0.8120107082,-0.251088753,-0.4756612007,-0.1013254948,0.6793717345,0.5678863075,0.0793951479,-0.0998698918,-0.3242611678,-0.8824687308,1.0274933704,-0.7593208883,-1.1066669647,-0.5221756759,0.1087795578,-0.8876858018,-0.6757002849,0.1698513149,0.2906840447,-0.0919328084,0.4756383637,-0.2110986078,1.1591852392,0.052975893,-0.9746810899,0.9484926411,-0.4962120091,-0.6682638984,0.0847000869,-0.3079872794,-0.4908433256,0.1077488633,-0.3857073811,-0.8742719679,0.6781708462,0.2721772537,-0.3202677278,0.7357067798,0.8630029131,0.2748108416,0.4775015464,-0.2842331528,-0.5776517652,0.5374221867,0.290403195,-0.5454951827,0.7626072846,-0.2977141291,0.0116866253,-0.2370059785,0.8617964969,0.0507486061,1.3112158653,-0.3274112512,-0.9415354605,0.8326111288,0.9263458044,-0.5089636965,0.6183573086,-0.0754367687,-0.5836361517,0.6477708714,-0.3058286263,0.6794909484,0.5006626073,1.1339613135,-0.7830772116,-0.5154231246,-0.5277041493,-0.0254681219,-0.1344429937,-0.7449850857,0.5103628269,0.3453209699,-0.703008943,0.2200614966,-0.6104860552,-0.7006605565,0.377770113,0.7191980793,1.2668617015,-0.7866390222,0.3124916649,-0.2049400189,-0.6509449348,1.304698996,1.2490169066,-0.2926971378,0.4310685463,-0.4632222642,0.4786606657,0.8003084062,0.5324221596,-0.3466909256,-0.5196287511,-0.5660581852,-0.63472207,0.5905545086,0.8103505042,-0.7193498168,0.0800017414,-0.2793158115,0.0453989024,1.1445122485,-0.2048625655,0.1501720942,-0.708040191,0.3288211804,-1.0219927274,1.1118237225,0.8448671409,-0.0398476872,1.1964134299,-0.1957739444,-0.3844370201,1.5056442377,1.0596603862,1.0292215792,1.359261717,1.0294391255,0.3421501048,-0.3089060367,-0.2152547824,-0.9615533349,0.1328378993,-0.5664770937,-0.4043920104,1.231285017,-0.2084281067,0.2348030537,0.0992502702,1.040135308,0.2097759492,0.414049674,-0.3064089591,0.0798767486,-0.2162646618,-0.197340415,-0.0703891908,0.6963110398,0.3788179889,0.2934789227,0.6839618958,0.8242852807,-0.6383979982,-0.3277713894,-0.2043385374,-0.7530916516,-0.0790383631,0.9906134557,0.1553759854,0.3293493737,0.6120240712,0.4816478489,0.3109073963,-0.7014680008,0.4276083405,0.7126641955,-0.1595712165,-0.6290761092,0.3145829109,0.3873162994,-0.9787723069,0.7566540406,-0.5395454546,-0.7548196626,0.7676741077,0.8166724911,-0.8087881295,-0.0255883296,-0.349790253,-0.5478239113,0.467970379,-0.1087504922,0.7343282038,-0.5620787397,0.0161814345,0.0814726681,-0.5135990012,0.52890904,-1.2361487886,-0.1288199461,0.4844313301,0.3690528202,-0.5655050341,0.477130235,0.356728862,0.5992596004,-0.0242619693,0.2017553334,-0.4143351992,-0.5830032053,-0.191404989,-0.3853311368,-0.7950579522,0.290455186,0.1895887725,-0.636833944,-0.7076392479,0.3888252318,0.0946154512,0.6130851365,0.176239293,-0.7736100691,0.7290635765,-0.1504024338,-0.7631564201,0.0704979949,0.3825924635,-0.2232496221,0.3676820382,-0.1934705721,0.4440948994,0.8000286129,-0.2360117071,0.5528383548,-0.357540349,0.7902824232,-1.142777843,-0.8397288455,1.2444920602,0.1722022713,-0.388884542,1.2931942661,0.2316297498,0.2758231761,0.5498501678,0.1789217982,-0.0137990734,1.1619830092,-0.9892003277,-0.4023120882,0.9592715767,0.2724949876,0.2634563212,-0.237193325,-0.7086511444,0.9038318802,-0.3915926284,-0.4171986872,-0.2096720863,-0.0143297224,0.0329472073,-1.0096173234,0.2764752044,-0.2326214016,-1.0291871798,1.0702605436,0.152170627,0.3536495359,-0.4785429208,-0.3514230143,0.1372981545,0.2778607183,-1.1669313463,-0.5048896464,-0.6313590418,-1.0276525936,-0.1018339271,0.3404691219,-0.6045455187,0.3040386464,0.2625155771,-0.3794728632,-0.183413646,0.45986515,-0.7531438547,0.3362163631,0.1601826162,-0.8785428907,-0.1249338162,-0.5354520664,-0.172190623,0.8959323229,0.838249025,-1.1423649854,0.731579877,1.2234912912,-1.0013681459,0.637033144,0.605647658,0.7542933194,-0.3756844998,-0.5242158287,0.1051805232,0.4843318027,0.6266151704,0.1430902393,-0.0773660868,-0.2254640828,0.4590822523,0.3290459156,-0.2854498722,-0.9574067,0.6605135385,0.5432217833,-0.6638901534,-0.7212130355,1.0456746851,0.6586917241,-0.7689286744,-0.1672797291,0.4423642372,0.4706790908,0.4396756472,-1.0772785103,0.3550930822,0.3236337414,-0.2754280193,-0.774091943,-0.3067899278,-0.3022754941,0.5646208213,0.2365762027,-1.1480587078,0.7090635306,0.9895185153,-0.0546965419,0.326086779,0.6663526864,-0.1817757065,0.7104028923,0.3138675123,-0.5986059851,-0.6715311079,0.5722180706,-0.0408489693,-0.2030588077,0.5849089984,-1.1817460999,0.0419693707,0.7388922732,-0.3453736345,0.5440417969,0.7130161879,0.2176487189,-0.5901132269,0.8740822125,0.0098767126,-0.6672356432,-0.5072052631,-0.1828494291,-0.3798879562,0.2034892634,0.0610949983,-1.0388740721,-0.7533794934,-1.2578727765,-0.5721238158,0.749696511,-0.1794411577,0.6538987986,1.175544306,-0.3285779754,-0.8133774212,1.332435023,-0.1225086408,-0.7447065949,0.376878091,0.1541574967,-0.0704651697,0.9619977572,0.2883136999,-0.0766301491,0.7746084185,-1.0269000537,-0.0381562049,0.9395497562,0.005588423,-0.9427066777,0.4426525754,-0.7041740495,0.075243298,1.1913571356,-0.5221078187,0.7193377446,1.0610813326,-0.1237077765,0.8560412162,-0.4596641261,-0.6899422235,-0.9563821704,-0.1571054708,-1.1164723497,-0.4802693329,0.9946329184,0.5121879885,-0.6971841958,-0.1209331183,0.012926847,-0.1114747053,0.3051373404,-0.9044674742,0.0400340448,0.2333501394,-1.1729496073,0.6330560599,-0.6890840075,-0.0884009793,-0.3525717885,0.1431601009,-0.2647513756,0.1442842675,-0.644927426,0.1529911118,-0.3702566838,-0.4003540018,0.1951039562,0.953452871,0.8326277036,-1.064779208,0.6130978056,0.3533240641,0.2373799659,-0.1025210258,1.3149789312,-0.9890883697,-0.1602103005,0.1525315491,-0.2444064575,0.1562800507,-0.3096566997,-0.1637026049,0.679833634,0.4940058764,-0.7716941174,0.2569563372,-0.1224947111,0.3639790992,-0.636162448,-0.1342802776,-0.8806559193,0.3865351684,0.5770764681,-0.5732151961,0.5389462698,0.468581063,0.4893407984,-0.1603241322,-0.1323318535,-0.7957957397,-0.6596748354,0.9002964651,-0.0754973305,0.1955528665,-0.503838262,-0.9679568736,0.4922471287,0.0954438579,0.7029869618,-0.2587097657,1.1327186633,-0.5530153224,0.4030609842,-0.3100318819,-0.3266756528,-0.7946454062,1.2095544772,-0.2338232047,0.7973182875,0.5104877405,-0.9178721537,0.3605765215,1.0697761136,0.2123489088,0.5560479233,0.1500990036,-1.0072789442,-0.1936929698,0.1045330219,0.111125899,-1.7848661919,-0.5731883973,-0.3655626108,-0.7188332668,-0.8658320937,-0.2507107912,0.0841597057,0.5000552408,0.7813981503,1.0055782515,1.010424563,-0.2524685598,-0.1150077717,0.0115464818,-0.3243126904,-1.0034694348,0.6245104518,-0.2383490981,-0.9380433411,-0.6512207975,-0.9418305563,-0.7206650573,0.4908107895,0.1541603442,0.8523727182,-0.5947804294,0.726162947,0.3075489046,0.2022467226,-0.5450294181,0.7055478668,-0.1741359671,0.3764920243,-0.6289150787,0.1621307516,-0.7402151854,-0.6898060211,-0.4661407852,0.133468297,0.0477683624,0.8148714808,-0.2499665622,0.3831919771,-0.8175810575,-0.7316079605,-0.0514929066,-0.6170108669,0.9668211922,0.1810368057,0.1888478214,0.230746315,-0.1224620786,0.5291086305,-0.7958542223,-0.7910462061,-0.4982995759,-0.1211293506,0.3619510192,0.6495259166,-0.7089747531,0.1710000036,-0.0756549877,0.8352963729,-0.5749422082,0.8545025347,-0.8254011195,0.9002130305,-0.8065138851,0.2333699701,-0.5065732795,-0.0491306261,-0.3727987606,0.3352985079,-0.0355596955,0.2398331878,-0.2511692135,0.7715589187,-0.4129806794,-0.7981031785,-0.1792576378,0.1680851544,0.0558418751,-0.9660631407,0.0935340466,-0.9371562063,0.1542445232,-0.7836597652,0.5659608391,-0.4543862487,-0.5466962006,-0.3115320214,0.2129805266,0.3011052329,0.7146033923,0.0503067398,-0.8674298219,-0.8964985504,0.8111801899,0.8699887495,-0.40427172,-0.6677201791,0.8768618065,-0.4525932692,0.7123421076,0.8692434956,0.9220190516,0.6885502637,-0.7122609682,0.9001323965,0.420618564,0.717123568,-0.0877699457,0.0647073806,0.6917845687,-0.537297642,-0.8538266973,-0.5631712994,0.1445651974,-0.9786019459,0.731595484,-1.0086708218,1.0741093288,-0.747900438,0.6356771012,-0.3886960795,-0.3490422857,-0.6397144721,0.7809381152,0.5817319507,-0.696184002,-0.4810836616,-0.2639831135,0.4988930622,0.6543340295,-0.1535908686,0.3034760452,-0.5353545426,-0.2513971715,-0.0421496963,0.2081525375,-0.2452109674,-0.9561345737,0.4105845569,0.6152661281,0.8131138013,-0.3428356236,0.7216478055,-0.3884108823,0.4930279789,0.4479473598,0.0650590666,0.3673204079,-0.5497059202,-0.6600219135,0.8286222866,-0.3948363184,-0.6789542044,-0.0875439308,-0.0812444727,-0.2356708779,0.902558213,0.2839031182,0.7348680706,0.9164217156,-0.2803423064,0.6299513434,0.1028227091,-0.7048316122,-0.867870507,-0.1881307144,0.2419429933,-0.5848861163,-0.8539155083,-0.1049537893,0.2789769653,0.5280278259,0.9833755183,-0.9654995399,-0.2254722746,-0.4157943679,-0.9302632461,1.1425930606,0.1360210086,0.0528840321,0.7754186941,0.7117553842,-0.8097293633,1.0168867729,0.1072733283,-0.2460504234,0.1813008121,0.4763764676,0.8035357599,0.3119009911,-0.0064135198,0.6095433709,0.4753872302,0.1776878025,-0.2585744632,0.9119973477,0.2474028807,-0.5642424654,-0.8966771612,-0.3346017874,0.1636718016,0.5187329576,-0.5663954087,-0.5074884377,-0.1835050101,-0.8204127154,-0.78399941,-0.020082782,1.0378186706,-0.0986259046,-0.0167987276,0.8498486789,-0.2408384303,0.6406909077,0.5523099873,0.0843028053,1.1003004271,-0.7567864351,0.0179636062,0.529911459,0.2474382746,0.1332314364,0.6174138718,-0.4496633802,0.5871732202,0.5067279403,-0.4907823671,-0.2476473529,0.1786859807,-0.1476658126,0.6033832098,-0.6556821079,-0.8962336339,-0.3460154895,0.175478147,-0.684545584,-0.7943318718,-0.1196641949,0.0923752513,-0.1332872078,0.3388996073,0.7835565286,0.7449281843,-0.3614608958,0.0253327922,0.9839083097,-0.3679971259,-0.4309133903,0.2101204455,-0.8879739191,0.1624767855,0.8447070914,0.2679020367,0.2980726782,0.1784946828,0.7699482856,0.748897593,0.2949361285,-0.2237672417,-0.7812130122,-0.1563954995,0.2545730629,0.0570103477,0.3253311949,0.3920985345,0.1743698716,-0.1920384675,-0.3260062081,-0.217686271,0.527707277,-0.1623656884,-0.5100679604,-0.2126818086,-0.2392521422,0.9993733649,0.2471429461,-0.0073568243,0.0195990734,-0.5718080664,0.7636507782,-0.076634188,0.0169801302,0.8860580633,0.7159163496,0.568190529,0.3049840299,0.6419648639,-0.6689203373,0.8359756517,0.2831264073,0.4494636152,-0.2506130507,-0.482756794,-0.864251912,-0.9296523584,-0.0018667327,0.7831568155,1.7305279106,0.6574795884,-0.5101220442,-0.068186828,-0.3785392468,0.7771339375,-0.1461811752,-0.0273589221,-0.4838043243,-0.0813596242,1.2646926025,-0.7521859671,0.4866065582,1.3906199966,-0.2220054799,-0.263989509,1.2885985446,0.1688440822,-0.0422303046,0.0324013156,0.5093232198,1.3311988974,1.422923564,0.1849626785,-0.0158610673,-0.0893242195,0.6193526158,-0.2712383806,0.8299129684,0.7827323628,0.3274061859,0.7032423344,-0.7831177085,1.1058941527,0.8758841531,-0.057431821,0.7524858561,0.1158150941,0.195795073,0.8486995566,0.9277330479,0.2124171898,0.0811909074,-0.4037579587,-0.1715146215,-0.0903776654,0.0635374019,0.8063192869,1.1210998295,0.7030542625,0.4019496566,1.3998604084,-0.4174696102,1.1987480752,1.4026901452,0.0384673926,0.5330100741,-0.1415480732,0.1599665399,1.0848377336,-0.2846586785,0.7217385946,-0.6273802547,0.1020173668,-0.7811883318,0.6771228691,-0.5619543063,-0.799066258,0.8425961331,1.2310326565,1.0897825462,-0.3880114724,0.2737243764,-0.2607694695,-0.3138978767,-0.4556425994,1.1145102288,0.6320752991,0.4477631402,-0.6085162701,-0.1284179241,0.2846742893,1.2808823998,0.8794611597,0.6877990277,-0.5473565651,1.0329987386,-0.3845957425,0.7969379104,0.1847925524,-0.145953542,0.6580164816,-0.296899123,-0.6024345368,0.9987471842,0.1733804703,0.2949086257,0.189089574,0.608570237,-0.5433235735,0.2923568565,-0.8622337825,0.605679826,-0.1876549868,-0.884579095,1.0734844577,-0.2248637729,0.2215442118,0.6508438848,0.9068969987,0.7390316599,1.3140253533,0.8924971363,-0.5856255038,-0.4111533569,1.0869255317,-0.2723527535,1.1984472694,-0.0117196223,0.2095267593,0.3490662961,0.876816612,-0.1102334275,0.960815616,0.1633327438,0.6580294852,-0.5399165876,-0.614539441,0.2248940067,0.7988541468,0.6132532106,0.1363104588,0.4014503624,0.8087072204,0.38876112,-0.6539652704,-0.285268552,0.0116830199,0.722744309,0.04525717,0.978423113,0.1051444312,1.1128398263,0.5905501426,-0.4867250526,0.634847508,-0.1641624993,0.0259639109,-0.2975080414,-0.5548591526,1.3040629627,-0.1374809733,-0.4119288527,-0.723348038,-0.0257112803,0.8010010932,-0.6295841702,-0.8664128596,0.7043797287,0.0356202432,-0.8521260468,0.8171783529,-0.3500413654,-0.5231619137,0.1766607128,-0.1605221287,0.233562105,-0.2207802986,-0.2294515678,-0.2187580464,0.804488559,-0.3960203644,-0.4194509801,0.8660835466,1.030373063,-0.3018069531,-0.1474498059,-0.3848405818,-0.3806281243,-0.0301779507,1.1906820647,-0.7221917612,0.1403844925,0.5628772627,-0.4927240631,0.5570745835,-0.6298422767,0.8351001318,-0.9839244555,-0.0906327854,-0.4339375421,-0.8566201986,0.2543402197,-0.5433459958,0.0132563515,0.9898048188,-0.7760187169,-0.0475838492,0.2627675889,0.7421267588,0.4836736289,0.9248286913,0.0537205494,0.274347356,0.0949844444,0.0478895177,0.1649718381,0.9046632838,0.7289761371,-0.1800440626,-0.4707869516,0.9775268033,-0.9961157072,-0.3648958146,-0.651612481,0.7894267323,-0.7112365128,-0.7776825099,-0.6036732411,0.0378595719,0.0191191581,-0.5354939025,-0.8352409812,0.7920733055,-1.123164155,0.1486032572,-0.860661222,-0.3293191688,-0.0496337636,0.3104121308,-0.1461955382,-0.1598680821,0.0089761506,-0.2910853289,-0.0059106388,0.3234321876,0.2507704621,0.5954522919,-0.3617403205,-0.2980896191,0.2365319357,-0.8204489287,0.5809809923,0.406298496,-0.8598015802,-0.1248959103,0.2866380372,0.0936416844,-0.4109698346,-0.6507688253,-0.9164759356,-0.9399787438,-0.2984211374,-0.5232383797,0.39797499,0.4129628624,-0.4387421299,-0.226770703,0.0039832677,0.2887472919,-0.2231329695,0.8024444921,-0.7819368904,-0.5712941733,0.347997363,0.2989067987,0.1392200893,-0.6000178065,0.2717769627,0.0610088537,0.4072091872,0.4652950363,-0.2646547986,0.6448273617,-0.2424396036,0.0295387847,0.4293335524,0.9400222756,-0.126788083,0.5591481026,0.5549120738,0.5349857458,0.0422454676,0.1632540908,-0.9594558645,0.1809289328,-0.0695532322,-0.8174638289,0.1555370079,0.5471852585,0.1702274239,0.6845737124,0.0489086139,-0.7965533994,0.7747832374,-0.7520622373,-0.3803112485,0.1230682896,0.1230962837,0.8495690406,0.2482902544,1.9438452352,0.8805538617,0.2646931048,0.9767720398,0.4434546065,0.7496708298,0.3138162787,0.8362406133,-0.0087052168,-0.8525618609,-0.7345513142,0.5428891844,-0.5587037811,-0.849314883,-0.761825023,-0.2670228064,0.3152523708,0.2584959061,0.3074359302,0.3736358326,-0.5807068071,0.5374063086,-0.3147580162,-0.3193468419,-0.5011201519,-0.3570697799,0.5090470092,-0.1768941902,-0.060621447,-0.7795269561,0.5009130801,-0.1366874217,0.4298094976,-0.5751701995,0.4575154484,-0.5620446751,-0.4189644611,0.9113275766,-0.0972716886,0.8921150268,0.767873044,0.6726424415,0.4345685411,-0.6090914711,-0.603271908,0.4944999391,-0.7993995652,-0.0116491955,0.6796502155,0.0546378959,-0.7733766872,-0.6628405684,0.4179909416,0.6460059928,0.9014757119,-0.2781319871,-0.4798379487,-0.0800073118,-0.5160331137,-1.0109484589,-0.184616186,0.6907224798,0.2662217717,0.8014481311,-0.9236385324,-0.8061379815,0.6367293773,-0.6960442074,0.4087552501,0.8810480447,-0.5867393973,-0.953328647,0.5322936516,0.7998034922,-1.0096982324,-0.3032186442,0.0880122395,0.5289965435,0.8110491051,-0.4783650255,0.911459254,-0.7574723464,0.6410907761,0.4294384894,0.7986471985,0.4417409068,-1.0730085804,-0.9831233186,0.5589479113,0.0537363757,-0.579141687,-0.6275610595,-0.1377486983,0.0513444103,-0.3200672221,0.8310829562,-0.4513486144,-0.2499849167,0.2116081839,1.1141429049,0.6664786046,-0.1979175001,-0.752226204,0.5870028318,0.4448195891,-0.2099879572,0.4186847002,-0.6229424879,0.6434323265,-0.1004679472,-0.8759473801,0.2799262909,0.112901168,-0.5589122278,0.5122779832,0.6290419511,-0.2635354393,-0.8110528177,-0.0318214822,0.4724225024,-0.4072559443,-0.3539621445,-0.903311292,-0.5053104127,-0.3732949001,0.1288172731,0.8952756945,-0.210312627,0.4348550811,-0.1751126818,0.1400405186,-0.3882452908,0.1224590665,0.0476324261,-0.897325193,-0.6721323549,-0.0346954782,-0.6023697485,0.1132805438,-0.6134280264,0.0298586816,-0.3219874391,-0.6344975219,0.400081884,-0.6644333439,0.1656278549,0.0757502136,-0.3720160205,-1.1412741529,-0.3422646457,-1.0553253087,0.0332690333,0.0211657978,-0.782633892,0.5637345495,-0.2040041179,0.6095245457,-0.7107334166,-0.5967913382,0.0692956573,0.7459070202,0.2039788231,-0.3969613517,-0.5180055971,0.7203992623,0.9685531063,0.6713474748,-0.3427875292,0.1851045317,0.9056199629,-1.0562860379,-1.0164759205,-0.9341918287,0.9040414362,0.6503229663,-0.8359545661,-0.8366961888,0.6605380401,0.8297330214,0.0345627666,-0.2352001256,-0.0825841009,0.645657117,0.0034488224,0.7121324448,-0.4291979248,0.3865056003,0.4644119206,-0.4587770015,0.6689869384,0.3876949705,-0.558184098,-0.6760271066,0.2465898512,0.6765409931,0.7346486859,0.1433198587,0.5911645012,-0.116280593,-0.2653985277,-0.0122739892,0.0016157889,-0.527332724,0.6484646523,0.4713460299,-1.0273863739,-0.7033071235,-1.0991357304,-0.20333042,-0.7444675043,-0.6966652619,-0.2290286777,-0.2846458139,0.577532892,1.0164547841,-0.0332720813,-0.7899768524,-0.8231652384,-0.3878112713,-0.675368136,-0.1035275128,0.8494878878,-0.7641482698,-0.2240984948,-0.1013973172,-0.1441437075,-0.9873770795,-0.6779676141,0.3739074827,-0.5901977122,-0.3419646396,0.0739114435,-0.5515462848,0.9251032518,-0.8907149804,0.7324648257,0.1007412897,-0.2038173345,-0.3800365028,-0.9894480726,0.4900942274,0.9158231435,-0.189986264,-0.6213775475,0.5760130055,-0.1864457702,0.2896183413,-0.7733421488,-0.1683823625,0.6228605855,-0.0204758904,0.0481729851,0.0566892702,-0.6399139405,0.9142397298,0.3367422244,-0.7995416724,0.4143231008,0.262236026,-0.0114017401,0.8258728634,-0.5086930043,0.5964732453,-0.8366868852,-0.0691636827,-0.7529800044,-0.1969097765,-0.07315967,-1.0546660999,0.79894199,-1.0717688198,-0.0391586862,-0.772960413,-0.7027216414,0.6461225941,-0.3738073094,-0.5944338835,0.689043132,-0.1941642182,0.1719341583,-0.0939479509,0.7116799794,-0.6952099455,0.6915690936,0.1167534096,0.1081392014,0.1731541344,0.7299195026,0.4938382914,-1.0243322773,-0.7955284051,0.1434342735,0.7283753447,0.2747224223,-1.0855316018,-0.8118040231,-0.5652498456,0.3028397317,-0.8173505417,-0.9352029137,0.5744735574,-0.800211945,-0.594642912,0.762605414,-0.8253868782,-0.2215728705,0.4711095984,-0.4649748354,0.5396758191,-0.7008661866,0.9315576453,-0.5338645777,0.9969351008,-0.1190701959,0.9537915747,-0.3168849803,-0.624964661,-0.4293621717,0.9250214746,-0.1989445088,0.9314650666,0.1054983496,0.5632318152,-0.6828549635,0.5044938466,-1.043264421,-0.867976913,0.0121614575,-0.5722482214,0.8142886195,-0.191546774,0.6136623522,0.6219912059,0.2255657532,0.8102768231,0.1452732391,0.7889113195,-0.0690168261,0.672940775,0.6537656372,0.6390495243,0.98574765,-0.517699361,0.8349303586,0.1537292468,0.0407402092,-1.0767140494,-0.7830452175,-0.499629266,-0.4887628212,-0.0106179754,0.0110590621,0.5257104477,-0.0689231013,0.7337874538,0.4604710098,-0.9852250707,-0.4150864297,0.8335112454,0.0572891275,0.5155940914,0.8641488938,0.7298821361,-0.0280433581,0.3619320799,-0.1373953422,-0.2054092663,-0.7063652476,-0.840362685,0.152237756,-0.1824146428,-0.8443651253,-0.3484778691,0.1577391758,-0.0224234196,0.9740283215,0.0434533348,-0.1519301422,0.9844170091,0.69466258,-0.2055506635,0.8216314047,0.0910929919,0.9103589496,-0.1893474463,-0.7276245663,-0.0622033905,0.9432917575,0.4254933198,-0.8807121664,0.2159362356,-0.3080405715,0.9475335136,0.9221084683,-0.1355792254,0.4612256298,0.7459226869,0.2517147235,0.5118034974,-0.2818045864,-0.2076362836,-0.5354225258,-0.8085769758,0.3176532509,-0.0530523575,0.0816193738,-0.4321600812,0.806278043,-0.0685290689,-0.5510519007,0.5218556756,-0.7182185853,0.3144775488,-0.9373177699,0.7304176465,-0.5010884387,-0.9959249532,0.2769712263,-0.5819962165,0.2972144072,0.1565361363,-0.9616397883,-0.2038984232,-0.5938741715,0.5984440248,-0.6423292319,-0.9069241597,0.8864518287,0.7000695333,-0.5365665303,-0.7083279759,0.4884405123,-0.4971007979,0.7328884479,0.4407329227,0.2685300509,-0.2865280315,-0.4953777258,-0.0231841694,0.8229188433,0.3923607213,-0.8868634087,-0.7864227747,-0.0005451627,-0.7064305135,0.6928266053,-0.2125820644,-0.0201413949,-0.9473665409,-0.8711696523,-0.6147858599,0.4251406244,-0.2378584749,-0.3919726798,0.6724335158,0.9036349563,0.8020598811,-0.276706456,-0.491614462,-0.3928755779,0.6244737338,0.2182976711,-0.7760022893,-0.8351654306,0.1781260649,0.1195187807,0.4335026786,-0.2407783504,0.1380128218,-0.3782422306,0.5604139905,0.5183540413,0.5443763759,-0.5806241441,0.2252103204,-0.3780937037,-0.2091916126,-0.676982937,0.1453642437,-0.5715981628,0.2254299157,-0.1253989246,-0.8916665667,1.0277345641,0.3952271553,0.588306702,-0.2273610928,-0.4069153447,-0.257439925,0.9044205088,0.2573929433,0.6843258443,-0.7161049134,-0.8941947065,0.4934707185,0.4892690484,0.0739752648,0.4697370481,0.7516371558,-0.8806128815,-0.4144522128,0.3210477566,-0.7021489561,-0.9721476967,-0.1713405508,0.5074915208,0.8562205988,-0.4312755899,0.1419568713,0.7484374472,0.1698951375,-0.2484464827,0.5182743213,0.9668138843,0.5901260511,0.6177512041,0.1642702249,0.7498422236,0.4787024286,0.0691261949,-0.443116388,0.81112434,0.1417151202,-0.5655801121,0.6493824188,0.8713507877,0.775170569,-0.5626877657,-0.504188135,0.251287165,-0.0723655964,-0.958532426,-0.1659573088,0.4887078882,-0.8381050929,-0.7574320054,0.0208002031,-0.4138247633,-0.0687767592,-0.5648717911,0.54405843,0.0451911291,0.4131522218,-0.3534081596,0.0118578888,-0.3529950479,0.0715394657,0.930358586,0.9308600295,0.6757025768,-0.8767461897,0.4928764475,0.0713475071,-0.5425337992,-0.2991515208,0.5126433044,-0.4533751943,0.6639935458,0.1568224885,-0.9115095491,-0.2323860234,-0.8250443229,-0.555482408,-0.9150358517,0.1782715738,0.8530181522,0.6521034157,0.2824526188,-0.1776408948,0.6641028203,0.9338270278,-0.3460426787,-0.5064298352,-0.8467707903,-0.7740711052,-0.2199838277,1.0022430141,0.6144903362,0.9481527037,0.0391591357,0.168443682,-0.3466691736,0.4226348127,-0.6426286782,0.2742319711,-0.4261303213,-0.2502478551,0.6576301185,-0.4466789163,-0.5847868555,0.1547872987,0.0420429096,-0.1456780311,0.471050194,-0.9951228007,-1.0166633217,-0.2133771047,-0.0273366112,0.3106307581,-0.6937739983,-0.5447181607,0.7518320054,0.5056971605,0.5319081796,0.7013058004,0.0884665824,0.4772960194,0.0043649014,-0.8458965963,-0.0805344766,-0.5059842393,-0.6353232425,-0.5081479122,0.6073104391,0.131361328,-0.8327881312,0.3553128538,-0.1330946832,0.3691646826,0.2495772814,0.2094641455,-0.5742796742,0.2475697642,0.1161072748,-0.044692575,0.5041755285,-0.3521397165,-0.406176419,0.7421085178,-0.4225113717,0.6231004946,-0.2284158192,0.5399938575,0.3348090265,-0.7999888253,-0.731617877,-0.6351559915,-0.5273517888,0.078567024,0.3690155111,1.1024340288,-0.1685417825,0.7228647227,0.3388399974,-1.0912156195,0.3731260358,-0.3263303782,-0.9163251422,-0.7052640063,0.7543481343,-0.3513444981,-0.9888723587,1.1627786679,0.2283272763,-0.6987095408,0.2111932633,0.0448879098,-0.7583847542,0.4991035421,-0.9514647511,0.2727582809,-0.2623481404,0.5206152762,0.0335676828,-0.0025756277,0.1827125086,-0.2235284358,-0.3894992349,-1.1753298422,0.589808142,0.3983912637,-0.0758768379,-0.8358654263,0.3439176628,0.1422988107,0.4025234637,-0.4886742071,0.5138605644,0.901666782,-0.4740666995,0.0913003331,0.313523773,-0.1748778673,0.4986439793,0.0137259131,-0.3777257735,-0.9562855449,-0.9086026997,1.1567522897,-0.2717188514,0.6770311749,1.0632430961,-0.4516790663,0.0334953452,0.701297772,-1.3093261179,0.6600083478,0.5863273255,0.1111014251,0.7640405284,-0.2087069657,-0.5994263129,0.3092799799,-0.1433347407,-0.4507048827,-0.3627467661,-0.280143106,-0.7322265617,-0.4724705988,0.6100524741,-1.1393241241,1.003222233,1.2335396521,0.6204618048,-0.4374558736,-0.0687002754,-0.5948902928,-0.9041511045,-0.4876689345,-1.2704836094,0.9584524338,0.233773846,-0.7862330269,0.0499374091,0.7667446008,-0.4346383709,-0.7287064421,0.7283419997,0.2102888187,0.7712951799,0.6916446058,0.0572871718,0.6110085567,0.4028421303,-1.0297998279,0.4904830054,0.5855172088,-0.2110673085,0.0641018637,0.3194830799,-0.7997238162,-0.0060244465,1.0015544331,-0.6523746744,0.9890933396,-0.3387293887,0.7687858137,-0.2490086716,0.3744330711,0.277468214,-0.7688298351,-0.2914495534,0.0149798704,-0.7319785398,1.1467368788,-0.8187462761,-0.7972203697,0.2523177519,0.1013318087,0.3366125131,1.3154417033,-1.0022581398,-0.3445217975,-0.1797378111,-0.7870464985,0.6972856616,0.3025231068,0.4415665311,0.8739052723,-0.3105632902,-0.9193227916,-0.232824204,0.8825768909,-0.6221031928,0.1289928973,-0.3980724817,0.6333284325,-0.8977689596,-0.4328467075,0.1268588052,0.5271103582,0.8643473372,-1.0576150758,0.0713529038,0.7627894429,-0.9014880825,0.4982590848,-0.4114610765,-0.3701601693,-0.6313190668,0.6977381856,-0.8934712871,-0.5774660339,-0.3308785868,0.8630482795,-0.6754255107,-0.393396322,0.2919730765,-0.3873972095,0.012743856,0.2378114975,-0.7343376385,0.5891244045,-0.6800817879,-0.823224253,-0.2221637995,0.6696475671,0.3894304505,-0.4455721663,-1.0824591251,-0.2850677763,0.0442375239,0.278474322,-0.2064035473,0.3024730918,0.2479311423,0.1620761666,-0.0951903393,-0.0275022876,0.5975226215,-0.3397653244,-1.1792440676,-0.6020067494
   -0.1757047367,0.4650579902,-0.0770301807,0.7506614116,-0.9147742206,0.6169870225,0.4979813141,0.7194903251,0.3336617143,0.7694018841,-1.0362297814,-0.1309134206,0.3293701683,-0.8899721282,1.1411480935,-0.0489839737,0.6131767809,1.02815977,0.9935865257,-1.0314740492,-0.0995554959,0.4490552777,0.3703723887,-0.4080665159,0.468321928,-0.4381967349,0.5567361505,0.9613374053,-0.0373248279,0.546084725,0.783531001,0.053897972,-0.4428871725,0.1156861516,-0.9150410658,-0.6824796866,1.2737336476,0.6428780918,0.8069536443,0.3501216665,-1.1986394879,-0.0837241922,-0.6796715573,0.0512552394,-0.8361915526,-0.050147582,-0.3144524204,-0.6127709435,1.3967381395,-0.8314185871,0.4426068686,-0.2275335595,-1.4509560994,0.7979012281,1.1093132158,-0.2216285031,-0.2769707076,0.1242613224,-0.7429180824,0.4183971498,-0.386453696,-0.7337977553,0.9660557694,0.5135963233,-0.4463261545,-0.8432098474,1.3160377686,-0.7205399345,-0.5959125007,0.369602784,-0.5217037228,-0.4287730495,0.6996671379,0.3005730887,0.5658683381,0.6522680576,-1.0725131426,0.3105321989,0.6411915842,0.3589837494,-1.9005723629,0.7144494464,0.1040224233,-0.1393105523,0.4975855879,-0.0152622724,0.5713900103,-0.5845353465,-0.9245876443,0.7291843522,-0.7550312909,-0.7669969486,0.1028067681,0.9591988242,0.3308968265,0.116821001,0.0976114284,-0.9488192558,0.1425332158,0.19487202,-0.1331116446,0.6842380139,-0.485529466,-0.4298657826,0.0245114577,-0.464418155,0.1598026504,0.5757470157,0.1672109404,-0.6138398456,-0.1457771148,-0.4169239178,0.3695508534,-0.4358723353,-0.1419336873,-0.2049589798,-0.2926391833,0.747656568,-0.0559901018,0.8809146473,0.5489297781,-0.2137937453,0.234083755,0.3666028693,0.2953610237,0.0973699215,-0.4874884231,-0.7337249262,0.9093116878,0.7797277817,-0.0238403317,0.1390063415,-0.0773646809,-1.3499327272,0.6755258384,0.3006829796,-0.5034440159,1.0685760034,0.7192205219,-0.5377945916,-0.4322434873,-0.5036394493,0.2799099837,0.8688734336,-0.1676522298,-0.5075424588,-0.804351,0.7985496902,-0.7417617744,0.8675105082,-0.6734656663,-1.1297265854,-0.312244329,0.3671795918,0.6091957003,-0.7492962061,1.063198175,-0.6769300934,0.0542055754,0.4202144363,-0.109350766,0.1620434397,-0.3040166205,0.2109989683,-0.5862939637,0.4782720366,0.029957294,0.2492988016,0.2069680945,-1.1435392434,0.5385108992,0.1668979408,-0.6434295206,-0.3487095615,0.0935373001,0.655189946,0.3202283086,0.4117261867,-0.8856304903,1.1155578039,0.1214768691,-0.8656100486,0.8761279578,-0.3329509897,-0.7940751104,0.3521509803,0.2698190704,-0.8548185883,1.2828501914,0.3228622955,-0.5153274274,-0.2776893632,-0.2810834568,-1.004920956,0.8583888727,-0.5807051662,-0.5085706417,0.4774547619,1.1355140257,0.5066846953,-0.1753317902,0.9931003361,-1.1991113006,0.4169942777,1.1645509902,-0.1667548057,-0.4451324807,0.1863546963,0.6555649274,-0.4330525238,-0.6820250759,-0.2982841716,-0.5632452071,1.0524095432,-0.1073114632,0.7143988522,0.1424282546,-1.0781732922,0.9340236948,-0.704361898,-0.9617668835,0.2973496419,0.9435756759,-0.2499044061,-0.1446350954,0.2716466392,-0.4695333875,0.8764739013,-0.5025769489,-0.194596808,-0.4613790637,0.3569366286,-1.1486212877,0.7840707869,-0.2600702557,-0.9788415637,0.4014731871,0.4135321347,-0.9583181415,0.672385057,-0.7075051456,-0.9669136563,1.0099067987,-0.2874491806,-0.5109513678,0.5987104368,-0.0709843597,-0.6507427466,0.6222671432,0.6559292132,-0.3364005872,-0.0360642282,0.7028062569,-0.880041763,0.0407458687,0.054187855,-0.6693281811,-0.0904728574,-0.5878241129,-1.0366844708,0.4782991415,0.8130016846,-0.1911893852,0.304542686,-0.2903305286,-0.4333436162,-0.0909947054,-0.3179273852,-0.0822328729,0.6526151078,0.6604673342,0.4639517555,0.160896296,-0.7177721678,-1.0765721676,1.0953977458,0.1429060636,-0.4862256871,0.9403404199,0.1410949175,-0.4372314468,-0.0250127176,0.7560276002,0.0400614922,-0.24267967,-0.5887831657,-0.2127680585,0.6283737212,0.5742227117,0.2295015246,1.0162377125,0.0494747704,0.1802015562,-0.0458212679,-0.1795371178,-0.9613677034,-0.1150352687,1.026124319,-0.2611224147,0.1658971064,0.6864486755,-1.2032155498,-0.135729147,-0.6670160987,-1.1652410139,0.9532702128,-0.4762359215,-0.3248813553,-0.2230289875,0.6377692084,-0.5300505568,0.4327014925,0.583388128,-0.4978482822,0.2609937185,0.5434765324,0.4301972003,-0.4265294159,0.4198463468,-1.4898484921,0.0048008458,0.8428001759,0.3661563982,-0.5305133258,-0.4660330717,-0.7585194123,0.8437966448,0.3262143553,0.5351543405,-0.4577125984,-0.1424373767,-0.5562746332,-0.4900731596,-0.226518772,-0.0348938016,0.9008809796,1.110654101,0.2012481226,-0.0150581134,0.0608028826,-0.07584679,0.0563058368,-0.4580025027,-0.7251021787,-0.2225987319,0.7011604775,-0.7274961847,0.8684744642,-0.1766204517,-0.2110997095,0.0912983874,1.3074586937,-1.1676425693,-0.3557046334,1.1347607502,-1.4311937342,0.2810998144,1.2904675382,-1.2268218316,0.6770255201,-0.2328905356,0.2119437193,0.4404996642,-0.5344721632,-0.1889942848,0.9238655589,0.9812813412,-1.3732013182,-0.1787013403,-0.5156300368,-0.3951704519,0.3686605839,-0.1724247221,-0.6445269378,1.5743451379,0.0722700094,-1.17767254,-0.1814823379,0.1767296149,-0.8162193087,1.1574427322,3.1034467488,0.1613405381,0.5022029291,1.1177883424,0.773564239,-0.4023944623,0.5395537488,0.0985356828,-0.1185253108,0.3626120297,0.9598795278,0.5186816534,-0.282659195,1.1637480764,-0.1238357474,0.6527022126,1.0044365541,-0.2663353365,0.4820916983,0.2661805049,-0.1166712203,-0.3049995908,0.4880914412,0.8236380888,0.1151212445,-0.5473704382,-0.1546101355,0.5249586277,-0.8602170563,-0.3138974522,0.6873708297,-0.5890648868,0.8562513506,0.9904888354,-0.2555094975,0.3182378388,0.2630356348,-0.041986179,0.5029965605,0.5203904382,0.1719275523,-0.3810594312,0.2228925376,0.3738829768,0.7393256423,-0.6336434496,-0.2353566386,-0.7794314579,0.0271098066,-0.4619784052,0.4222915069,0.2356251067,-0.444775023,0.3037176821,0.0801453705,0.6980172805,-0.9713025223,-0.625144242,0.1422597299,0.1528447916,0.7907954907,-0.0845835477,-0.6478198735,1.1555041158,-0.6585361173,-0.0116692593,1.0210898559,-0.560535324,-0.3151590779,-0.2124130768,0.5206499074,-0.1340004147,-0.5272374135,0.4755064376,0.8694343437,-0.4575189523,-0.2554204035,-0.1467728597,1.0337115344,0.5273831733,-0.440392584,-0.7610381155,0.0062957669,0.0518230568,0.9834042696,0.0461705849,0.2463357108,-0.7822310811,-0.8713592559,0.0760633356,-0.870553664,-0.6748638353,0.0373845608,0.1685682984,-0.1865617899,0.5999973916,-0.2107522169,-0.8466493523,-0.6139140328,0.6537104039,-0.4115359861,0.8866671525,0.2934156773,-0.9416891598,0.4685742412,0.1877242769,-0.3971936324,0.8477154809,-0.9304744756,-0.3797133781,0.2739976543,0.0733884815,-0.7667980325,0.0723360685,-0.5050300047,-0.4970976699,0.386988404,-0.8065898874,-0.5077609419,0.1899871747,0.5227053063,0.5673155883,-0.8071701637,-0.8460557035,-0.3693458363,-0.1014597002,0.6149102934,-0.5885250722,-0.2980883412,0.4880804966,0.0234941358,-0.1831830455,0.7385813308,-0.7791011578,0.0170876975,-0.3370269398,-0.8262705443,0.0391530549,0.528795702,-0.6729017067,0.5241524785,0.5120459205,-0.4914906705,-0.7448770833,-0.7498392242,0.5674247618,0.3101137849,0.6745305519,-0.8050960829,-0.1493435665,-0.327222438,-0.188773412,0.8738944837,-0.4485029456,0.4932614953,-0.0574521757,-0.0778542896,0.197860239,0.36851933,0.5640099773,0.6693429665,0.787590093,0.2501818612,-0.8596752785,0.6957134812,0.7863281123,0.4560516644,-0.2271328317,-0.3782347602,0.471187553,0.817121319,0.9732621222,-0.2374220734,-0.5986376171,-0.2601648623,0.6800741475,-0.7180492687,-0.1438960706,0.5328807585,0.3557767756,-0.2061465284,0.0798422824,0.279147195,0.8859460401,-0.7508637786,-0.6619259999,0.481471229,0.6154293658,-0.1226900865,0.376322279,-0.7149378844,0.6969748644,-0.6553538588,-0.192206894,-0.6777347188,-0.5240984743,0.0841661592,0.4539107744,-0.0809990276,0.9666359901,-0.825060551,0.3167715613,-0.8322716983,0.871565796,-0.3344585736,-0.0700043108,0.8594850275,0.5208602339,0.1410879592,-0.6999214446,-0.0351551893,-0.4994264504,0.3862707612,0.5497169324,-0.6114225615,0.7581993462,-0.3471105757,-0.7458535191,0.5631803858,-0.5992077574,0.7690334169,0.5048666104,1.0539309381,0.5899009756,-0.0712221302,-0.092357639,0.8537472859,0.1189100854,0.1447525609,1.0589761487,-0.2664881107,-0.137034593,-0.7086010019,-0.9791869299,-0.8333178875,-0.6539968369,-0.483186258,-0.1344037676,-0.1110298122,0.476923956,-0.548565199,-0.1594243588,0.4025898499,0.3104392244,0.1338830058,-0.5898113091,1.0293251363,-0.6800965376,-0.4990829427,0.1354409698,-0.2244376091,-0.7897784973,0.5544758111,0.674170619,0.0037820224,0.0909178959,0.8580171508,-0.4160733846,0.2918519035,0.4090068572,0.8775368544,0.4659581072,0.9559249296,0.0141773301,-0.1746097398,0.1719362653,0.2699236001,0.2334260344,-0.8992640469,-0.8752161387,-0.6634004094,0.4432463471,-0.550083508,0.5257523546,-0.5726723586,0.1059305897,0.2935387602,0.3285483952,-0.1527195459,-0.4393815878,0.5313521931,-0.5617566688,-0.0883235096,1.0612942749,0.5637684462,0.2431569726,0.9279653627,0.608454915,-0.8668392231,0.0040400749,0.2616012032,0.5035323283,-0.6342840922,-0.224644019,-0.5361333578,0.4766839864,-0.9304301878,0.1124447297,0.9270529886,-0.1116670332,-0.1345958592,1.1810700669,0.3362752015,-0.3468484163,-0.1848145362,0.4089436393,0.1498125034,0.9737902184,0.0601824919,-0.6185949406,0.4478809189,-0.4720092828,-0.4086177595,1.3072465815,-0.2406797295,-1.3560258609,0.6356862109,0.8754389301,0.3909651618,1.0872864112,0.8185931032,-0.6349336454,-0.1265335811,0.5326181528,-1.1968662655,1.1045776442,-0.5109174475,-1.1785320643,0.2136672379,-0.0825451409,0.31100184,-0.1270878374,1.0257031855,-1.2919310385,0.6504435867,-0.2203888448,-1.1423083886,0.1693605689,-0.3369158288,-0.6338833342,-0.0482140516,-0.0478442546,-0.5574198652,-0.3338382951,-0.1173957242,-0.2432600165,0.9673708517,-0.4364831773,-1.1057246506,-0.4340260856,-0.7925667877,-0.6243300398,0.9509580802,-0.8764388149,-0.8290308776,0.7735466717,0.4854169681,-0.7768037808,-0.6098381961,0.7747227252,-0.0846751039,0.3244132624,0.7805140693,0.2241638453,0.0195008203,-0.5188767056,-1.3056204212,-0.339176425,-0.3397502532,-0.3629323215,1.0657703343,-0.8234743514,-0.8511204705,0.9365756839,0.2163743362,-0.2974527094,0.4093443613,0.0235677239,0.0615361885,-0.135470265,0.0832742105,-0.8221485605,0.6399210029,-0.2317044501,0.5297669116,0.6559716941,-0.8256834524,0.0581887771,0.7907388541,-0.2614689318,0.5760907399,-0.3128870667,1.0533574824,-0.5082065749,0.2432143765,0.3582584217,-0.6812789376,0.8279013502,0.4581734107,-0.1195530236,0.5988428162,-0.705141071,0.3301652926,1.1194899551,-0.4337660499,0.3556697361,-0.5407277095,0.6860218041,-0.488680131,0.0199686567,0.5128686646,0.3056417034,0.0480361153,-0.1552025374,-0.1125111009,0.7997886691,-0.6451439605,0.3377573878,0.2310061888,-0.3059177021,-1.061688576,0.8418433552,0.5913365816,-0.2606669765,0.1845351754,-0.0455350211,-0.9142793949,0.3259931027,0.8178698438,-0.8923406262,0.0764411535,0.418482307,-0.0501856139,-0.268896256,0.8310667332,-1.2031870047,0.4865951413,-0.0219573371,0.2486769502,-0.674589463,0.3757312357,-0.3086214191,0.0763683657,-0.0561855714,-0.5111119554,-0.6116742882,-0.6618423355,-0.7695175578,0.2667250425,-0.1700443003,0.098054625,0.7702388441,0.0171898336,-1.116691334,-0.3563936391,-0.9058032523,0.1534460659,0.6166811261,0.1785848885,-0.9256896482,0.1686531416,-0.7085899326,-0.3462466454,-0.1126859502,0.183154551,-0.5923117431,0.7685537546,0.9779228028,0.0453002117,0.2277308696,-0.1304643781,-0.6365538675,0.2394983974,0.120400651,0.2958430771,-0.2627855043,0.6933464428,-0.6028503251,0.9013784289,0.1620166008,-0.0891417186,0.392846723,0.9532966319,-0.8263582274,0.3934117979,0.2791233586,-0.4800234545,0.8704245584,-0.6545200199,-0.9860345905,0.6693682548,0.8756791943,0.1231457587,-0.4474691216,-0.1333353876,0.0200231534,0.5642301373,0.1011516561,-0.3787083482,-0.2941373206,-0.5544961765,0.7633092186,0.5375512669,0.2014048038,0.3287057206,-0.0484174385,0.074064295,-1.1866256521,0.4070451757,0.7033736009,-0.7216212403,0.1130241913,-0.2895389278,-0.6863901918,-0.5783263219,0.1171742129,-0.7856818845,0.6313849305,0.4567884989,-0.7596033589,-0.1078049783,0.7524270016,-0.1221701589,1.0823397216,-0.0925740458,-0.20675985,-0.2717230277,-0.4928325074,-0.8285636729,0.504683483,-0.1392216901,-0.738483094,0.4266735241,0.5717398229,-0.0029000832,1.0032208484,0.1454857691,-0.6450534264,-0.5848677054,-0.2638152374,-0.212025275,-0.0343477794,-0.3079914274,-0.3977235152,0.7452931049,-0.3167650534,-0.5820392958,0.1099678098,-0.6059396944,-0.0733037787,1.0883032674,0.0884348856,0.1211424634,-0.493945798,0.4745082133,-0.8871050321,-0.2218688493,-0.4909365087,0.2446357772,1.2223750499,-0.4363045345,-1.0112261899,-0.2337135585,-0.1082942101,-0.2111028154,0.0736156638,0.6926788017,-0.3024691067,0.9467889364,-0.6696845871,-0.1112065028,0.535584273,0.2396741205,-0.5609404496,0.6192047401,0.3612176023,0.1903897192,-0.1647295622,0.5857081479,-1.3093727213,1.266196413,-0.0698467505,-0.091383955,-0.0012212083,-0.6620642533,0.2579315676,-0.1887420001,-0.2979222585,0.3002956378,0.3194803313,0.7993302142,-0.6935645885,0.3253645107,-0.080884183,-0.7631374216,0.7443339186,-0.0806771706,-0.3032463477,1.1900189474,-0.4790162487,-0.544863054,0.2732583613,2.8646928323
##end
biasActivation=0,1,1
[BASIC:ACTIVATION]
"ActivationSigmoid"
"ActivationSigmoid"
"ActivationLinear"
